Version 8.7.0
Id 
Min label:-8.969
Max label:40
bits:18
lda:0
0 ngram:
0 skip:
options: --cb 2 --cb_explore 2 --cb_type dr --cbify 2 --csoaa 2
Checksum: 3719389144
:0
177:0.0248306
181:-0.0165804
183:-0.00107011
789:0.00770806
791:0.000427056
817:0.00600833
853:0.0131998
855:0.00786558
941:0.00122225
977:0.00564365
989:-0.0407261
991:-0.00168667
1201:-0.0201792
1209:0.0194363
1211:0.00283852
1321:0.0165788
1649:-0.00916976
1651:-0.00324631
1741:-0.0246676
1905:-0.0180871
2057:0.0253967
2093:-0.0267618
2429:0.0537024
2431:0.00177205
2473:0.00306231
2475:0.000855082
2593:-0.0215372
2595:0.00169776
2645:-0.0380499
2657:-0.00501323
2659:-4.58908e-05
2757:-0.0140059
2837:0.000620257
2839:0.00247566
3017:-0.0224391
3065:-0.0446854
3067:-0.000809754
3233:0.0181555
3285:-0.0113998
3287:0.00508321
3313:-0.0267477
3333:-0.0466132
3335:-0.00490571
3409:-0.0253539
3437:-0.0202453
3681:-0.0149292
3725:-0.0146571
3757:-0.0233642
3759:0.000202444
3765:-0.00992845
3789:-0.0166953
3791:-0.00346206
3933:-0.0217672
4129:-0.0184773
4161:-0.00546005
4169:-0.0165111
4171:-0.00163856
4257:-0.00719659
4259:-0.00223632
4309:-0.0323973
4311:-0.00254611
4357:0.00784336
4409:-0.0278584
4437:-0.00816961
4439:-0.000519628
4717:-0.0320585
4761:0.0325236
4763:0.00125358
4773:-0.0542035
4775:-0.00297649
5029:-0.041999
5217:0.00133805
5265:-5.02493e-05
5313:0.0168022
5315:0.00153878
5553:0.0216419
5677:0.00375403
5817:0.0097229
5819:0.000604175
5925:-0.00664574
5927:0.000770637
5941:0.020388
6385:0.0203008
6387:0.00821344
6705:0.00883516
6707:0.00230804
6721:-0.00866279
7045:-0.0297017
7047:-0.00633152
7125:0.0185763
7333:-0.0325319
7335:-0.00207439
7405:-0.011141
7409:0.0198363
7449:-0.015001
7451:-0.00163665
7489:0.000171049
7593:-0.0194637
7613:0.0943348
7615:0.00272641
7657:-0.0297455
7659:-0.00356671
7853:-0.0141754
8037:0.019697
8039:0.00121748
8449:-0.00895175
8629:-0.00153412
8741:0.000549077
8743:-0.000229728
8785:0.0230402
8787:0.00268842
8817:-0.0435618
8829:0.0319003
8831:0.00183435
9101:0.0194368
9113:0.0076173
9317:-0.0154556
9319:0.00161716
9325:-0.0239807
9625:-0.00538089
9627:0.00134097
9825:0.0284347
9881:-0.00535133
9883:-0.000296643
9953:-0.0293791
9955:-0.000930856
10009:-0.0016173
10011:-0.000519628
10189:-0.0288256
10191:0.00103043
10297:-0.0373375
10473:0.0132057
10569:0.00391155
10981:0.000633918
10983:0.00276216
11121:0.000839344
11123:-0.00104437
11277:-0.0105802
11285:-0.0194668
11287:0.00157406
11349:-0.0514915
11465:-0.0261736
11529:-0.014646
11565:0.00355387
11567:-0.000402166
11629:0.0225484
11633:0.00414926
11729:0.0251686
11797:0.0229423
11853:0.0219376
11985:0.000765362
12033:-0.0308244
12035:-0.000579279
12173:-0.0144446
12175:-0.00275332
12177:-0.00105272
12179:0.00847743
12225:0.0316464
12345:0.00729056
12347:-0.00218282
12445:-0.0399259
12447:-0.00272541
12541:0.0293916
12709:-0.0084724
12711:0.00204116
12853:-0.0199078
12855:-0.00107443
12973:0.019092
13097:0.0174439
13099:0.000621329
13205:-0.00970846
13207:0.000541868
13545:-0.0194133
13547:0.00317639
13557:-0.0147012
13653:0.0267728
13849:-0.0332456
13945:-0.00292215
13947:0.0037459
13993:-0.0235366
14021:-0.0062422
14023:-0.00193965
14253:-0.0177258
14297:0.0188369
14299:-0.000233723
14385:-0.0301065
14387:-0.00122646
14525:0.00955442
14645:-0.0318584
14685:0.0261832
14769:-0.00608765
14777:0.0201459
14953:0.013625
15233:0.0143828
15281:0.0054487
15283:0.000583487
15329:0.00765373
15331:-0.000233723
15369:-0.0113462
15371:0.00117651
15657:-0.0241059
15685:0.0158182
15757:-0.00895175
15833:0.00473059
15835:0.00177645
15861:0.013886
15863:0.00115348
16161:-0.0289749
16163:-0.000356339
16201:-0.0106219
16209:-0.0290601
16211:-0.000827039
16497:0.00758139
16499:-4.87598e-05
16557:-0.0254282
16559:-0.00276074
16877:-0.0117789
16879:0.00228026
16897:0.000366386
17113:-0.0266795
17161:-0.0187365
17277:0.023683
17281:-0.0272376
17505:-0.0233856
17569:-0.0511468
17571:0.00211649
17725:-0.0346523
17727:-0.0007088
17781:-0.00830352
17783:-0.00172346
17873:-0.0152864
17875:-0.000468589
17885:0.00376536
17887:0.0017269
17889:-0.0100543
17993:-0.0149548
18033:0.0207064
18035:0.00978135
18041:-0.0332289
18043:0.00215975
18261:0.0409617
18277:-0.0401792
18279:0.000708042
18321:0.0107731
18457:-0.0335416
18561:-0.0265224
18777:-0.0129312
18829:-0.0179641
18921:-0.00968891
18923:0.00204116
19021:-0.0683427
19023:-0.00352912
19057:-0.0239569
19073:0.0296805
19075:0.00177205
19217:0.0183966
19289:-0.0018299
19291:0.00298681
19405:0.0240744
19481:0.000760449
19561:-0.0288092
19685:-0.00204428
19849:0.000962289
20077:0.0028913
20093:0.004772
20101:-0.0186127
20317:0.0188343
20319:0.000604175
20353:-0.0304328
20355:0.00220531
20369:-0.00686835
20453:0.030834
20455:0.00102437
20489:0.02363
20561:0.0109969
20609:0.0182307
20611:0.00810377
20637:-0.0307901
20639:0.00111573
20717:0.0206463
20719:0.00821344
20861:-0.0337758
20863:-0.00474482
20889:-0.0687528
20891:-0.00148957
21097:-0.00178629
21099:0.00152941
21553:-0.0147347
21555:0.000941244
21653:-0.016079
21655:-0.00171439
21821:-0.0430439
21921:-0.0180871
21973:0.017381
22001:-0.0127849
22025:0.000283308
22517:0.0136598
22557:0.011437
22673:-0.00379058
22675:-0.00275332
22697:0.0252215
22777:-0.0259937
22779:0.0166893
23041:-0.0359488
23043:-0.00231703
23085:0.0180739
23087:0.00263093
23109:0.0197838
23113:-0.0261351
23133:-0.0328141
23135:-0.00150831
23361:-0.0103649
23373:-0.0239852
23385:0.0167495
23387:0.00197675
23437:-0.0112328
23439:0.00204116
23537:0.00472246
23539:0.00115348
23641:-0.0258939
23643:-0.00143806
23701:0.0205817
23777:0.00572842
23779:0.00109562
23849:-0.0739299
23851:-0.00198823
23865:-0.0173088
23881:-5.63773e-05
23883:0.00206505
23897:-0.0231112
23899:0.000761958
24117:0.0282307
24119:0.00285012
24189:0.00467875
24191:0.000282832
24209:-0.0592716
24221:-0.0245594
24233:-0.0202513
24235:-0.00264503
24241:-0.0197357
24243:0.00262367
24361:-0.0269578
24363:-0.00104329
24569:-0.00734349
24571:0.00852363
24633:0.0110035
24635:0.00279541
24657:-0.00839451
24793:-0.0232878
24929:-0.00778845
25049:0.0144919
25089:0.0200388
25091:-0.000402166
25121:-0.0107503
25123:0.00180716
25273:-0.0311751
25453:-0.0176351
25455:0.00204116
25501:-0.0230019
25553:-0.0200891
25593:-0.00332839
25595:-0.000727492
25721:-0.0255606
25873:0.00393208
26161:-0.00216685
26197:0.0250617
26445:-0.0247242
26705:-0.0215153
26937:0.0141975
26939:0.00391742
27157:0.0223142
27337:0.0251656
27339:0.000604175
27349:-0.020682
27381:-0.00663057
27389:0.0313844
27505:0.0107847
27533:-0.00575345
27535:0.00111573
27661:-0.0382103
27663:-0.000771211
27665:0.0334664
27761:-0.0260058
27763:-0.000647469
27841:0.017757
27843:0.000761958
27897:0.015697
27899:0.00263085
28097:-0.0148454
28099:-0.0019429
28177:-0.0266514
28179:0.00113936
28249:-0.0198804
28325:-0.0268497
28327:-0.00165853
28417:-0.0305767
28481:0.0195401
28483:0.00832658
28585:0.0251458
28661:-0.000934682
28663:0.00140344
29053:0.018646
29305:0.0169043
29313:-0.0749545
29315:-0.00198823
29365:-0.013726
29367:0.00111927
29669:-0.0160059
29921:-0.0483638
29923:-0.00207439
29949:-0.0158721
30093:-0.0131119
30095:0.000964052
30389:-5.46967e-05
30391:0.0021431
30469:0.0351237
30471:0.00809251
30573:0.0070708
30597:0.0170729
30599:0.00883809
30641:-0.0459397
30643:-0.00244633
31261:-0.024102
31301:-0.0777419
31303:-0.00355623
31309:-0.00767433
31311:0.00107362
31385:-0.0187207
31387:-0.000427031
31413:-0.0165131
31441:-0.0611425
31443:-0.0034806
31557:-0.0236063
31559:-0.00412089
31877:-0.0188283
31879:0.00323917
31921:-0.0452506
31923:-0.00264503
31961:-0.0158809
32089:0.0418993
32091:-0.00125737
32113:0.0390104
32115:0.000302663
32137:-0.0177052
32139:0.00760635
32305:0.0202369
32307:0.00821344
32345:-0.0187457
32365:-0.0110689
32367:-0.00104437
32701:-0.0337867
32703:-0.00381687
32889:-0.0164571
32891:0.00105837
33245:-0.0154356
33247:0.00174311
33341:0.0120626
33657:-0.0222699
33677:-0.0323513
33949:0.0208277
34109:-0.00746194
34111:0.000282832
34125:-0.0288571
34127:0.00885988
34517:-0.0132197
34577:-0.0230186
34579:-0.0024376
34785:-0.00415368
34985:0.0139486
35049:0.0204785
35193:0.00327953
35195:0.00111573
35353:-0.00912596
35561:-0.0249379
35869:-0.0108183
35877:-0.022203
36165:-0.0211548
36197:-0.0296291
36397:-0.0201406
36399:-0.00254611
36461:-0.0478052
36465:-0.0273059
36477:-0.0585931
36479:-0.000254322
36741:-0.0200342
36869:0.00702758
36871:-4.87598e-05
36893:-0.00287915
36895:-0.000519628
36917:-0.028641
36919:-0.00104329
37113:-0.00339026
37401:-0.01607
37403:-0.00150213
37417:-0.0397689
37419:-0.000701711
37465:-0.00915918
37467:0.00230804
37669:0.0162064
37671:0.00215975
37729:-0.012745
37849:0.00393208
37853:-0.0221859
37873:0.0128585
37875:0.00232168
37937:0.0344434
37939:0.00188429
38105:-0.011105
38107:0.00808296
38153:0.00845177
38155:-0.000183146
38309:-0.00480176
38409:0.0140009
38411:0.00230415
38461:-0.0339837
38789:-0.0209315
38791:0.00297201
38905:0.00509641
38921:-0.0058964
38923:0.000667688
39325:-0.0310101
39537:0.00414542
39539:0.00177645
39713:-0.0136584
39745:-0.0904586
39747:-0.00522025
39797:-0.024765
39881:-0.0256404
39883:-0.00168667
40005:0.00977896
40165:-0.0077651
40167:-0.000386554
40229:0.00323117
40269:0.0144859
40345:-0.0251938
40347:-0.00157331
40429:0.0132057
40569:0.0174109
40917:-0.0251534
40953:-5.02493e-05
41089:0.0163931
41091:0.00211558
41093:0.00107268
41095:0.00332708
41101:-0.00338081
41103:0.0103561
41937:0.00857919
41939:0.00181884
42181:0.00593882
42413:-0.011263
42569:0.0218943
42789:-0.0139907
42791:0.000604175
42805:-0.0270823
42807:0.000914733
42913:0.0180651
42915:0.00152941
42957:-0.0137369
42959:0.00144457
42969:-0.0141754
42973:0.021049
42975:0.00820582
43113:0.0192948
43485:-0.0391555
43533:0.0202369
43535:0.00821344
43549:-0.0131437
43769:-0.0297926
44029:0.00541746
44109:-0.0238399
44111:-0.00264503
44305:-0.0254524
44341:-0.00752892
44343:-0.00150831
44413:-0.010449
44415:-0.000995507
44437:0.0232764
44517:0.00784869
44529:-0.0294325
44573:-1.3724e-05
44575:-4.87598e-05
44841:-0.0286927
45297:0.00804431
45369:-0.00856709
45371:0.00400039
45617:-0.0263119
45741:-0.00695717
45743:0.00540546
45809:0.0215257
46189:-0.0120214
46191:0.00426726
46253:0.0335629
46255:0.00255963
46309:-0.0247678
46485:-0.0158605
46537:0.0195857
46545:-0.0218699
46549:-0.00982256
46593:-0.00370273
46797:-0.0118966
46933:0.0314995
46993:-0.020626
47317:-0.0282509
47429:-0.0618687
47461:0.0147485
47463:0.00272641
47529:0.00898273
47537:-0.0230086
47539:-0.00356671
47653:-0.015266
47765:0.0276395
47773:0.00122225
47781:-0.0207292
47821:0.0109969
47869:-0.0143155
47871:-0.0030428
47885:-0.038361
47887:-0.0019768
47937:-0.00690712
47939:-0.00150213
47965:0.00885087
48301:-0.0142072
48303:0.00337797
48617:0.0209441
48745:-0.0169575
48747:0.000282832
48753:0.00924252
48933:-0.000525719
48949:-0.0252605
49017:0.00762262
49019:0.00391631
49109:0.0219218
49253:0.00822842
49255:0.00204116
49505:-0.0297061
49507:0.0127881
49561:0.0102238
49563:0.00751062
49585:0.0169007
49905:-0.0304705
49907:-0.00168667
50429:-0.0314412
50431:-0.000771211
50641:-0.0206397
50643:-0.00107011
50673:-0.00803689
50675:0.00282328
50845:-0.0306758
50847:-0.000650123
50981:-0.00236329
50983:0.00111927
51097:-0.00400887
51099:0.00153347
51333:-0.00113381
51335:0.0010102
51581:-0.011853
51629:-0.0121963
51631:0.00295997
51653:-0.0147318
51689:-0.00206607
51945:0.00471822
51985:0.0300191
51987:0.0129527
52373:-0.0112571
52713:-0.0092469
52881:0.00988573
52883:0.00682432
52937:0.0232597
52945:0.000514938
52947:-0.000210994
53157:0.0223078
53349:-0.00825346
53365:0.0314291
53549:0.00847246
53569:-0.0147882
53571:0.000727374
53717:-0.0325486
53719:0.00140344
53765:0.0110564
53767:0.00387795
53853:-0.0106176
53855:0.00261122
53925:0.000174991
53927:0.00153878
53937:-0.000617198
53939:-0.000468589
54005:0.0210662
54007:0.0129872
54021:-0.00441086
54257:-0.00660368
54259:0.000964052
54353:-0.0236385
54457:-0.0031962
54517:-0.0156571
54553:-0.0277163
54741:-0.00636758
54793:-0.0245852
54825:0.00379735
54849:-0.0384961
54851:-0.00190554
54869:-0.02703
54937:-0.0288515
54939:0.0174195
55005:-0.0075215
55125:-0.0158492
55133:-0.0162574
55135:0.01207
55405:0.0217871
55737:-0.0224757
55853:-0.0302833
55869:0.00307834
55871:0.00134097
56177:-0.0167741
56179:0.00388306
56201:-0.015259
56309:-0.00725833
56401:0.0182947
56403:0.00282046
56421:-0.0155887
56557:-0.0197714
56561:0.0239583
56745:-0.0201477
56747:0.000885747
56921:-0.0360469
56953:0.00488286
56969:-0.0231006
56971:-0.00163856
56981:-0.0195994
57093:0.0241708
57117:0.018646
57157:-0.00291543
57181:0.0293877
57245:0.011302
57247:0.00139578
57313:-0.013654
57365:0.0199229
57545:-0.0353202
57609:-0.00036899
57897:-0.0114919
57977:-0.00990928
58077:0.0364813
58079:0.00152941
58093:-0.0203379
58165:-0.00573676
58357:0.00253693
58359:0.00154222
58369:-0.0203174
58373:-0.0122063
58701:-0.0118131
58703:0.00103043
58729:-0.0365014
58833:-0.00703625
58835:0.00165656
59181:-0.0319545
59229:-0.0204072
59401:0.00086591
59403:0.00154222
59433:-0.0116063
59461:-0.0151762
59513:0.00797621
59515:0.00102437
59633:-0.00349079
59685:0.00606687
59687:0.00197675
59693:-0.0329892
59695:-0.00212116
59849:-0.0445246
59851:-0.00220701
59941:-0.0125109
59943:0.00287158
60085:-0.00345928
60087:-0.000183146
60125:0.00639747
60153:-0.00847433
60155:-0.000522706
60265:0.0164979
60267:0.00257107
60293:0.000839859
60295:0.00211183
60417:-0.00726204
60419:-0.00230282
60501:-0.0669067
60503:-0.00262847
60597:-0.0297817
60653:-0.0523285
60655:-0.001584
60705:0.0144919
60905:-0.0262983
60907:0.00289053
60921:-0.0280518
60923:-0.00264503
61277:0.0286946
61529:-0.0113424
61531:0.000964052
61577:-0.0299037
61579:0.00230804
61897:0.00367131
61993:-0.023396
61995:0.00103043
62101:-0.0325643
62221:-0.0456045
62229:0.0156179
62231:0.00786208
62241:-0.00459688
62243:-0.0019685
62329:-0.0191913
62331:-0.000827039
62441:-0.00231012
62625:-0.000191956
62769:-0.00183853
62771:0.00144393
62969:0.0139413
63049:-0.00069474
63285:-0.0153994
63349:0.0202152
63351:0.00821344
63541:-0.0473569
63765:0.00498614
63767:0.00204116
64025:-0.0671494
64313:-0.00996897
64315:0.00177205
64377:0.0159487
64421:0.0215482
64501:-0.068183
64569:-0.0290904
64571:-0.0024324
64573:0.0226237
64649:-0.0409857
64757:-0.000357325
65185:-0.0376051
65187:-0.00168667
65317:-0.00279738
65319:-9.5732e-05
65333:-0.0498027
65713:-0.00468041
65833:-0.00823755
65835:0.00162326
65993:-0.0305604
66105:-0.00601101
66145:0.0106809
66147:0.00125358
66169:-0.036964
66171:-0.00129171
66357:-0.0722681
66429:0.00631062
66449:-0.00125408
66497:-0.0184062
66657:-0.0119896
66665:-0.043138
66693:-0.0302537
66989:-0.00141081
67197:-0.00888044
67233:0.0117498
67235:0.00247566
67353:-0.00673892
67425:-0.00990135
67441:-0.0123338
67443:0.011388
67769:-0.00418144
67893:-0.00677868
68161:-0.00517365
68163:0.00297201
68289:0.0209021
68291:0.000573317
68381:-0.0101188
68449:-0.0157411
68549:0.0308378
68565:-0.00235771
68567:0.000216643
68657:-0.0103413
68659:0.00276216
68829:0.0208533
68889:-0.0575041
68891:-0.000189622
69085:0.00731338
69087:0.000694379
69129:-0.0172602
69213:-0.0162205
69217:-0.0269596
69349:-0.00217457
69425:-0.0307295
69441:0.00313795
69443:0.000761958
69805:-0.00799901
70425:0.00259152
70573:-0.0143291
70737:0.0105449
70765:-0.0541866
70767:0.0018888
70785:0.00693324
70787:0.00752443
70897:0.00878521
71017:-0.00930663
71019:0.00290413
71025:-0.00622347
71029:-0.0253818
71165:-0.0141599
71201:-0.0251106
71317:-0.0274211
71319:0.00180202
71925:-0.0152538
71927:-0.000827039
71937:-0.039703
71939:-0.00180512
71973:-0.0236395
72049:-0.00930564
72051:-0.000353601
72081:-0.00379411
72083:0.00113077
72089:-0.0146696
72221:0.0162631
72223:0.00163545
72321:0.0264519
72453:0.0273386
72601:-0.0479326
72603:-0.00365346
72677:-0.0115255
72741:-0.0051272
73121:0.0155258
73123:0.000761958
73149:0.0370706
73151:0.00177205
73185:0.0278751
73341:-0.0384591
73343:-0.00129171
73361:-0.0200352
73363:-0.00131051
73405:-0.0620058
73569:0.013921
73571:0.00217862
73741:-0.0183839
73869:-0.0261126
73871:-9.5732e-05
74009:0.017348
74017:-0.0055188
74019:0.00121758
74077:-0.0364289
74079:-0.00210561
74193:-0.0331465
74195:-0.00211739
74293:0.0187294
74295:0.00197675
74429:0.0309183
74431:0.00111927
74477:-0.020156
74645:-0.0463986
74657:-0.0200891
74677:0.00256946
74679:0.002097
74813:-0.00196973
74821:-0.0276953
74965:0.00788359
74967:0.0133853
74981:-0.00908
75197:-0.0204254
75389:-0.0197537
75489:0.0221784
75491:0.00812033
75541:0.00962458
75543:0.00308284
75557:-0.00748116
75645:0.0188826
75705:0.0229096
75707:0.000621329
75741:-0.00478345
75743:-0.000626327
75829:-0.00895175
76073:0.0306602
76229:-0.0152347
76265:0.0097772
76521:-0.029431
76569:-0.0143102
76581:-0.00971502
76583:-0.00114168
76585:-0.0360124
76587:-0.00143321
76621:-0.0180011
76897:-0.0490614
76899:-0.00254611
76913:-0.0162047
77241:-0.0281509
77337:0.0150391
77349:-0.0450381
77389:0.0155328
77391:0.00309256
77493:-0.0228578
77553:0.0270272
77617:-0.00351011
77989:0.0220639
77991:0.00864138
78009:-0.0154065
78061:-0.0205838
78063:-0.00205605
78169:-0.000835281
78193:-0.0345655
78195:-0.000559987
78465:-0.0338751
78757:-0.0419381
78781:0.0453823
78809:-0.0248927
78909:-0.0320645
78911:-0.00104437
79013:0.0299466
79057:0.0108144
79073:-0.0389282
79075:0.00215975
79177:0.00393208
79285:0.0184369
79429:-0.0274049
79431:-0.00270843
79457:-0.0142063
79459:0.00504315
79469:-0.0236301
79545:0.030636
79557:-0.0117847
79561:0.00596346
79745:0.0280886
79785:0.0255069
80261:0.019092
80277:0.00642629
80279:-0.000183146
80309:0.0124304
80311:0.00358486
80333:-0.0206766
80335:0.000604175
80393:-0.00203265
80409:-0.0322913
80537:-0.00249392
80573:-0.0084582
80575:0.00111573
80673:-0.0172511
80675:-0.00231703
80737:-0.032571
81281:-0.0158354
81283:-0.00223632
81289:0.00564365
81313:-0.0235366
81421:-0.0651726
81423:-0.00264503
81449:0.0288473
81521:0.0281798
81533:0.0465424
81833:-0.00183865
81985:0.015442
82001:-0.0320167
82003:-0.000930856
82013:0.0229162
82029:-0.0169314
82031:0.00146245
82077:-0.0164588
82079:0.0023285
82089:-0.0141903
82091:0.0116837
82201:0.0284161
82461:-0.000166807
82485:-0.00676842
82487:0.00254186
82617:0.00846751
82619:0.0080948
82693:0.0149893
82695:0.00252386
82749:0.00243301
82981:0.019509
83385:-0.0142943
83387:0.00170282
83673:0.0535269
83675:-0.00125737
83733:-0.00992845
83805:0.0112968
84013:-0.0124347
84015:-0.000519628
84049:-0.00805836
84051:0.000724218
84073:0.0299134
84161:0.0156189
84163:0.00151002
84221:0.00375403
84313:0.0357623
84315:0.00197675
84397:0.00962962
84581:0.0176163
84649:-0.033738
84651:-0.00148957
84757:-0.0207999
84829:0.0139806
84833:-0.0191247
84835:-0.00150213
85009:0.0215405
85101:0.0411166
85181:-0.0221641
85285:-0.0166677
85287:-0.00104217
85297:0.00917531
85501:-0.021951
85613:-0.0204471
85615:-0.000686129
85617:-0.0211101
86125:0.0134629
86127:0.000835749
86189:-0.0138367
86193:-0.0244915
86545:-0.0230634
86569:0.011188
86571:0.000964052
86813:-0.0251095
86837:-0.0167392
86893:-0.0249978
87197:-0.0233579
87199:-0.00188055
87261:-0.00323667
87381:0.0214591
87383:0.00272641
87449:-0.0123941
87485:-0.000661985
87487:0.00325861
87649:-0.00824506
87651:-0.00188055
87757:-0.0134104
87759:0.00288269
87897:0.0100146
87899:0.00111573
87909:0.0386386
87911:0.0115776
88017:-0.0197212
88019:-0.000962694
88233:0.0371373
88235:0.00174037
88437:-0.0304301
88439:-0.000480303
88821:-0.0191183
88823:0.00128887
88937:-0.00141412
88939:0.00158783
89177:0.00200276
89233:0.0269751
89357:-0.00493646
89359:-0.000233723
89373:-0.0295915
89489:0.0477309
89521:0.006677
89523:0.00230804
89573:-0.000617198
89575:-0.000468589
89805:-0.0092075
89969:-0.00607016
89971:0.000718354
90017:0.0299748
90097:-0.00348286
90241:-0.0148126
90285:-0.0689942
90287:-0.00412351
90369:-0.0125886
90417:-0.00147155
90461:-0.0390302
90463:-0.00325216
90561:0.0190779
90753:0.0129818
90917:-0.0161716
90919:0.00225481
91077:-0.00907942
91079:0.00111927
91277:-0.0330754
91293:-0.047114
91297:-0.0419415
91421:0.0187983
91573:-0.0358466
91949:0.00240375
92021:0.0171289
92023:0.0115776
92169:-0.00913879
92171:0.00128612
92381:0.0163082
92383:-0.000229728
92509:0.00279955
92511:0.00224605
92637:0.023908
92977:0.0239583
93013:0.0202369
93015:0.00821344
93293:0.017338
93295:0.000817987
93457:-0.0332605
93459:-0.00230282
93609:-0.00831858
93657:-0.00259843
93659:-0.00324631
93801:-0.0355346
93897:0.0052745
93899:0.00263549
94129:-0.0139502
94131:0.00162267
94173:-0.0055188
94175:0.00121758
94229:-0.0129732
94277:-0.00285309
94433:-0.0221826
94477:-0.0415898
94633:-0.0177976
94705:-0.0183103
94707:-0.00115404
94969:-0.034914
94989:1.27368e-05
95313:-0.0350285
95461:-0.015188
95549:-0.0119902
95551:0.00128612
95565:0.017054
95567:0.00252386
95621:-0.0200631
95653:-0.0062049
95773:-0.0245461
95833:0.0167618
95835:0.00249928
95977:-0.000993353
96209:-0.0284572
96353:-0.0131437
96581:-0.0730036
96583:-6.33791e-05
96769:-0.00482094
96771:-8.43779e-05
96813:-0.0352088
96815:-0.000579279
96909:0.00689785
96911:0.00655978
97157:-0.0192983
97237:-0.00594407
97239:-0.00306009
97273:-0.00849193
97337:-0.0199376
97525:-0.0230832
97527:-0.000554598
97533:-0.026054
97535:-0.00163407
97589:0.0272515
97657:0.0635083
97841:-0.0572392
97843:-0.00231703
97941:-0.0226977
97943:0.000673797
98145:0.00308939
98147:0.00296053
98149:0.0176378
98151:0.00699372
98441:-0.0252175
98443:-0.00276074
98637:-0.00831858
98733:-0.0165609
98735:-0.00324631
98813:-0.0307264
98815:0.00144051
98881:-0.0220629
98883:-0.0024324
98985:-0.00265649
99077:-0.017637
99079:0.00100476
99849:-0.00853355
99851:-0.000468589
99893:-0.0336607
99977:0.0164054
99979:0.00723474
100297:0.0189171
100397:0.0239908
100399:0.00197675
100509:0.0252176
100561:-0.0441854
100563:-0.000579279
100917:-0.00465601
101133:0.00291956
101135:0.00156294
101149:-0.0272643
101169:0.0240744
101205:0.0182424
101207:0.00853885
101317:-0.0670979
101333:0.00916295
101341:-0.00617018
101601:0.0206861
101603:0.0109923
101837:-0.0194194
101841:0.0176946
101843:-0.000739881
101981:-0.00958787
101983:0.00105342
102037:-0.00990963
102073:-0.0283726
102177:-0.021859
102179:0.00665315
102397:-0.0314076
102537:0.00108508
102569:0.000157239
102571:-0.000379262
102597:-0.015986
102697:0.00644382
102761:-0.0059034
102921:-0.00121691
102923:0.00160743
102977:-0.0158492
103049:-0.0262232
103101:0.00234894
103103:0.00211183
103109:4.50707e-05
103297:-0.00991737
103299:-0.000468589
103505:-0.00286465
103507:0.00279541
103789:0.0216522
103791:0.00851758
103833:0.0208997
103835:0.00137478
103849:-0.01252
103851:0.00152835
103853:0.0223743
103981:0.0143686
103983:0.00266497
104325:0.019907
104333:0.0160929
104335:0.00153878
104369:-0.019
104425:-0.00234016
104427:-0.00345888
104453:-0.0337867
104455:-0.00381687
104701:-0.030884
104713:-0.0183231
104725:0.00367131
104933:-0.0293462
104941:-0.0192793
104943:-0.00123562
104957:0.0205679
104959:0.00821344
105133:-0.00346987
105197:0.0168752
105293:0.00319955
105295:0.00204116
105421:-0.029466
105425:-0.0196647
105427:0.000231316
105449:0.0478458
105451:0.00376811
105453:-0.00991737
105455:-0.000468589
105733:-0.0153076
106037:0.00441565
106039:0.0027739
106245:0.0163335
106247:0.00153878
106337:-0.0191984
106339:-0.000827039
106365:-0.0259941
106413:0.0240698
106541:-0.025787
106817:0.0315735
106819:0.00111927
107049:-0.016321
107181:0.0144859
107217:0.0291871
107219:0.00105342
107265:-0.000450751
107305:0.00393208
107533:-0.00219487
107535:0.00276216
107861:0.0255621
108081:-0.015459
108185:-0.00182237
108187:-0.000150832
108189:-0.00924256
108191:0.00162326
108241:-0.0156571
108293:-0.00608909
108295:0.00161716
108297:-0.0234581
108529:0.0184513
108685:-0.025855
108713:-0.0195456
108725:-0.0154034
108727:-0.000480303
108781:-0.0101188
108789:-0.0235274
108893:0.0033231
109061:0.00524956
109069:-0.032093
109071:-0.00130304
109093:-0.00674819
109189:-0.0236328
109285:-0.0206579
109433:-0.0118692
109435:0.00853433
109481:0.0109481
109497:0.00535553
109499:0.00249563
109525:-0.0239152
109527:0.000761958
109981:-0.0703342
109983:-0.00279639
110053:-0.0115511
110413:0.0039965
110545:-0.0424891
110547:-0.00268925
110593:0.00506335
110885:0.00276807
110887:0.00115348
110889:-0.0329556
110891:-0.00180512
111081:-0.00754824
111089:-0.00483591
111209:-0.0161526
111217:-0.0172056
111233:-0.00501074
111353:-0.0211628
111477:-0.00394752
111479:0.00109503
111493:-0.0409857
111505:-0.0356527
111717:0.00367527
111719:0.000817987
111973:-0.0118853
112061:5.56974e-05
112063:0.00502226
112077:-0.03977
112079:-0.00264503
112101:-0.00303592
112113:-0.00934068
112121:-0.0110787
112469:-0.0389866
112471:-0.000423041
112557:0.00761077
112559:0.00121748
112853:-0.00731707
113029:0.021693
113189:-0.0118853
113353:-0.0144939
113445:-0.0212133
113447:0.000761958
113581:-0.00490943
113585:-0.00428182
113587:0.00873329
113609:-0.000282768
114013:-0.0100582
114229:-0.0146696
114389:0.00536723
114397:-0.0272568
114577:0.00684845
114579:0.00111573
114641:0.000760449
114713:-0.0206579
114845:0.00432465
114981:-0.0241873
114983:-0.000650123
115541:-0.0314356
115565:-0.0467116
115567:-0.00178696
115769:-0.0228578
115865:-0.0250237
115867:-0.000686129
116033:0.0314995
116077:-0.0466815
116079:-0.000510494
116205:-0.040337
116281:0.0357998
116533:-0.0108044
116605:-0.00171601
116661:-0.00653112
116663:0.00102437
116737:-0.0112846
117173:0.00518752
117175:0.000295607
117309:-0.012745
117541:-0.0161374
117543:-0.000686129
117601:0.00888421
117603:0.00682533
117709:0.00831061
117711:0.000546012
117737:-0.0413934
117761:-0.0273507
117993:-0.0101195
117995:0.00174037
118181:0.00428448
118183:0.00249563
118185:-0.0303155
118187:0.00201608
118337:0.00258972
118541:-0.0126851
118543:-0.00207439
118545:-0.0207076
118547:-0.000359901
118601:0.0199936
118621:-0.00474486
118777:0.00427606
118779:0.00100476
118813:-0.0508953
119009:0.026278
119011:0.00309256
119273:-0.0180871
119397:-0.0132371
119399:-0.0028937
119457:-0.00990928
119489:0.0220029
119813:0.02335
119815:0.00197675
119949:-0.047589
119951:-0.000602502
119969:-0.0230261
120001:0.0150623
120003:0.00309256
120029:0.00302302
120161:-0.0107346
120163:0.00783368
120333:-0.0360202
120335:-0.00143806
120633:-0.015117
121037:-0.0472287
121089:-0.0159621
121133:-0.0141754
121661:0.0226779
121663:0.000761958
121701:-0.0393555
121733:-0.0303437
122077:-0.00307524
122193:-0.0192563
122209:-0.0155887
122329:-0.0379306
122331:-0.00272541
122421:0.0300832
122493:-0.0105801
122495:-0.000866036
122777:-0.0342126
122779:0.000325216
123077:-0.0289408
123079:-0.00231067
123197:-0.00992845
123333:-0.0250736
123473:-0.0300537
123737:-0.0328386
123739:-0.000727492
123769:0.0159156
123817:-0.0321296
123873:0.0205174
123875:0.00821344
123901:-0.0251534
123973:-0.0128192
123975:0.000761958
124013:0.0228487
124015:0.00846345
124185:-0.0232948
124187:-0.00218883
124293:0.0194931
124295:0.000964052
124393:-0.00182924
124497:0.00277358
124537:-0.0201391
124539:0.00309256
124553:-0.0221859
124669:-0.0169335
124671:-0.000510494
124713:-0.0284807
125069:-0.054841
125071:-0.00178696
125105:-0.000679593
125107:0.00847743
125321:-0.00673892
125433:-0.00537439
125437:-0.0203317
125529:0.00889114
125593:-0.0114919
125625:-0.0311031
125627:-0.000431173
125749:-0.0224356
125751:-0.00287355
125813:0.0277266
125853:0.0107016
125901:-0.0164765
125903:0.00174037
126305:0.0235721
126353:0.0155133
126445:0.00130603
126447:0.000835749
127009:-0.0263505
127241:-0.0481438
127517:-0.04563
127519:-0.00254802
127713:0.0300141
127715:0.00248631
128157:-0.00434511
128269:-0.0303597
128271:-0.00120577
128313:-0.0268953
128417:-0.0211548
128641:-0.0287364
128753:-0.0454272
128755:-0.00010501
128957:-0.000771784
129053:0.021288
129161:0.0363127
129181:-0.00852535
129183:-0.00139751
129257:-0.0359488
129259:-0.00231703
129293:-0.00161896
129295:0.00306637
129545:0.0183859
129547:0.00282046
129621:-0.0180871
130037:-0.00312442
130039:-0.000420512
130153:-0.0293329
130155:-0.00143806
130245:-0.010858
130513:-0.0329003
130573:0.0202369
130575:0.00821344
130621:-0.0217299
130623:0.00167766
130641:-0.00565139
130643:0.00125201
130785:-0.0281234
130805:-0.0344528
130881:-0.00907997
130897:0.0190548
130949:0.00242196
130951:0.00158199
131101:-0.0198905
131103:-0.00129171
131125:-0.0194637
131221:0.0235057
131529:0.0260244
131601:0.00355414
131845:-0.016253
131873:0.0191369
131981:-0.0116063
132101:-0.0155887
132177:-0.0163508
132181:0.0267838
132225:0.0176305
132345:-0.0239195
132347:0.00117224
132349:-0.0041763
132517:-0.0421936
132519:-0.00270843
132545:-0.049247
132637:0.0280555
132817:-0.0557716
132819:-0.00104217
132853:-0.00162239
132855:0.0021431
133221:-0.0256146
133223:-0.00329329
133309:-0.00562771
133311:0.00203804
133401:0.00327001
133641:0.0400106
133661:-0.0328978
133733:0.0240092
133837:-0.0191984
133839:-0.000827039
134373:-0.00973045
134709:-0.0130451
134733:0.0188085
134741:-0.00580909
134743:-0.00111897
134965:-0.0357192
134967:-0.00143321
135141:-0.0390231
135143:-0.00297649
135149:0.0393711
135151:0.00210014
135169:-0.0229833
135171:-0.0014272
135313:0.0199229
135345:0.0218943
135417:0.00599165
135419:0.00377034
135505:-0.0323138
135507:-0.000771211
135725:0.00260272
135727:0.00380003
135973:0.0126036
136089:-0.0022389
136091:0.000976193
136221:0.0047663
136409:-0.00327439
136411:0.000885747
136561:-0.00125408
136617:0.0202345
136637:0.0281451
136693:0.00167701
136695:0.00731942
136897:-0.0205137
136899:0.00103043
137029:-0.00579356
137031:0.00103043
137081:0.0193887
137173:-0.00100652
137175:-0.00143806
137237:-0.00740617
137309:0.0135506
137357:-0.0172925
137393:0.00173964
137395:0.0022666
137669:-0.0312205
137671:-0.00081245
137701:0.0027679
137797:0.00150737
137799:0.00247566
137801:0.00860444
137803:0.000546012
137961:0.0183898
137969:-0.0218596
138257:0.0177395
138259:0.00105342
138281:-0.0166784
138283:0.00214291
138321:0.0249979
138323:0.00134106
138417:0.00188272
138521:-0.0273035
138845:-0.0346116
138847:-0.00179911
139117:-0.0260146
139237:-0.0137734
139239:0.00657339
139341:-0.00474486
139409:-0.035407
139709:0.0201385
139711:0.00820582
139753:0.0240698
139921:0.0278779
139977:-0.0126668
139979:0.00861463
140045:-0.0350736
140047:-0.000510494
140337:-0.00681357
140339:0.00160743
140489:-0.0264358
140661:-0.00645727
140663:-8.77145e-05
140713:-0.022861
140715:-0.00172112
140937:-0.00381815
141041:-0.0204705
141053:-0.0310574
141309:-0.0289791
141337:0.0194207
141339:0.00820781
141493:0.0141761
141809:0.00274155
141811:0.00296053
141821:-0.019886
141841:0.01145
141953:-0.0393602
141955:-0.000402166
142177:0.00437202
142205:0.0242002
142401:0.0097772
142417:0.0109443
142545:-0.0528065
142547:-0.00324172
142665:0.0256359
142689:-0.00380393
142881:-0.0188514
142883:-0.00102995
142905:0.0173897
142907:0.00272018
143085:0.00968861
143087:0.0112364
143101:-0.00141412
143103:0.00158783
143317:-0.0267945
143345:-0.0318894
143349:0.00461362
143357:-0.0421906
143359:-0.00101758
143441:-0.0407862
143443:-0.00220123
143621:0.026388
143623:0.00121272
143757:-0.00992845
143781:-0.0289602
143937:0.00531068
143939:-0.000624326
144193:-0.0330754
144233:-0.00964889
144235:0.00102437
144257:5.93113e-05
144259:0.00883809
144357:0.0246683
144359:0.00154222
144369:-0.00402793
144371:0.000605061
144469:0.0259939
144477:-0.0192617
144479:-0.00104437
144485:-0.0208267
144487:0.00107362
144589:0.0320995
144591:0.00238655
144705:0.0193887
144729:0.0357649
144829:0.000924947
144831:0.00230804
144905:-0.0425318
144913:-0.0218072
144917:-0.0206249
145093:-0.0488096
145095:0.000961543
145405:0.015827
145407:0.0079395
145521:0.0282379
145561:0.00784869
145641:0.0236463
145713:0.0144919
145729:0.00140541
145817:-0.0105932
145819:0.000605061
146237:0.000550725
146513:-0.0152673
146515:-0.0030428
146681:-0.0113231
146683:-0.00117518
146845:-0.0203851
147309:0.00393208
147529:0.00336793
147531:0.00178751
147713:0.0499754
147715:0.00364144
147801:-0.0323138
147803:-0.000771211
148001:0.00393208
148017:-0.0560564
148019:-0.000435589
148029:0.00150173
148097:-0.0274738
148153:0.0125451
148155:0.00217862
148365:-0.0108378
148405:0.0263797
148573:-0.025912
148697:0.0095903
148717:-0.014793
148925:-0.0124748
149441:-0.00448875
149443:-0.00143321
149785:-0.0206822
149787:-0.00178696
150057:-0.0145048
150059:0.00140344
150281:0.0181233
150341:-0.0316159
150343:-0.00298994
150837:-0.011277
150865:-0.0221354
150893:0.0152465
150895:0.00666602
150925:-0.00910856
151001:-0.022989
151005:-0.0123579
151007:-0.00232403
151141:0.00178384
151265:0.0101154
151285:0.0078697
151287:0.000311602
151353:-0.0023623
151525:-0.0542035
151527:-0.00297649
151537:-0.0125886
151681:0.0224794
151749:-0.0698575
151751:-0.00262847
151917:0.0137648
151919:0.00276971
152609:0.0176507
152611:0.00819434
152621:0.00316211
152625:-0.0175106
152627:0.00750256
152693:-0.0219806
152945:-0.0155887
152969:0.00337262
153513:0.00516523
153593:0.0299466
153757:0.030779
153759:0.00197675
153789:-0.00388021
153791:-0.000183146
154017:-0.0150551
154049:-0.0270974
154089:-0.036053
154091:-0.00107011
154417:0.021822
154553:-0.00534258
154637:0.0362632
154639:0.00238655
154641:-0.0200507
154643:-0.0024324
154681:-0.0349703
155173:-0.000183768
155175:0.00298681
155177:0.0448593
155313:-0.0243683
155373:0.0175955
155375:0.00272018
155525:-0.0328978
155553:-0.0244562
155555:-0.00104329
155725:-0.00663823
155753:0.0184858
155801:0.0195396
155969:-0.000357325
156209:0.0178297
156211:-8.43779e-05
156457:-0.00559639
156459:0.000605061
156485:-0.0272427
156487:0.000861099
156509:-0.0166138
156609:0.00716732
156611:0.000427056
156709:-0.0297869
156711:-0.00102978
156781:-0.0129131
156783:0.000601459
157397:0.00880443
157399:0.00230804
157897:0.0330944
157953:-0.0059015
157955:0.00290413
158157:0.00914011
158185:0.00878824
158273:0.0203988
158275:0.00821344
158297:0.0182361
158299:-0.000183146
158357:0.0144163
158359:0.00151002
158413:-0.00283756
158415:0.00254186
158505:-0.0245532
158509:0.0143721
158657:-0.0237544
158773:-0.00455333
158775:0.000964052
158785:0.0247501
158787:0.00134106
158837:-0.0240632
158985:-0.0229495
158987:-0.00104437
159425:-0.00852465
159593:-0.0197425
159595:0.00204116
159653:-0.0056218
159661:0.0285282
159669:-0.00557778
159671:-0.000827039
159681:-0.0295819
160381:-0.0126157
160383:0.00128612
160517:0.0306531
160519:0.00202774
160561:0.0165822
160563:0.00358486
160781:0.0353969
160783:0.00907661
160873:-0.0398377
160875:-0.00168667
160981:-0.0356731
161037:-0.00855827
161169:0.0293877
161245:0.020107
161247:0.00247566
161285:0.0293886
161287:0.00197675
161497:0.0115918
161499:0.00230804
161633:-0.01396
161669:-0.0135191
161671:-0.00180512
162177:-0.0165451
162193:-0.0120016
162195:-0.000233723
162197:-0.0600056
162199:-0.00117518
162221:-0.0241325
162223:-0.000155588
162309:-0.00713739
162311:0.00326142
162869:0.0105449
163093:0.00321162
163133:-0.0116063
163157:-0.0273949
163159:0.000234803
163245:-0.0222733
163249:0.0059098
163277:0.0332176
163279:0.00861463
163353:0.00955442
163437:-0.0351154
163629:-0.0155532
163729:0.0195778
163769:-0.0226733
163771:-0.000866036
164349:0.0312919
164351:0.0030303
164417:-0.0481529
164419:-0.00178696
164965:0.0397311
164967:0.000621329
165017:-0.0731687
165019:-0.00324172
165045:-0.0467116
165047:-0.00178696
165261:-0.0226374
165437:-0.0177442
165439:-0.00163856
165497:-0.0183677
165499:0.000762737
165537:0.0143093
165557:0.0244791
165649:0.00717763
165661:-0.0177735
165817:0.00374958
165819:-0.000766206
165897:-0.0121176
165977:-0.00604314
166129:-0.0108723
166353:-0.100782
166355:-0.00114191
166465:0.0101154
166497:-0.0175709
166833:0.0163097
166835:0.00269505
166885:-0.058169
166887:-0.00312304
166893:-0.0074115
166941:-0.0216184
166961:0.00100602
167121:0.000236149
167123:-0.000466269
167153:-0.00167501
167155:-0.00103069
167269:-0.0234569
167285:0.0327883
167345:0.037661
167405:0.0239643
167565:-0.0276227
167605:-0.0286094
167777:-0.0212533
167937:0.0105732
168157:0.00963002
168159:0.00197675
168237:-0.0262502
168549:-0.0251641
168551:-0.000771211
168553:0.0162619
168555:0.00776183
168697:-0.0168432
168813:-0.0335416
168821:-0.044913
169033:0.00399601
169035:0.000761958
169309:-0.0109534
169311:0.00136538
169377:0.0164925
169669:-0.0218601
169671:0.000207377
169689:-0.0150154
169733:-0.0188015
169765:0.0133361
169861:-0.00675993
169863:0.00188661
170065:0.00430345
170067:0.00109562
170157:-0.00204394
170159:0.00256245
170169:-0.0199164
170417:0.0204785
170693:-0.00217457
170997:-0.00429423
170999:-0.000427031
171377:0.0231487
171757:-0.0146292
171759:0.00100476
171937:-0.00413662
172017:0.00756128
172019:0.00462052
172133:0.0673159
172135:0.0014342
172637:0.0381883
172673:-0.0109975
172697:0.000281961
172699:-0.000468589
172813:-0.0137305
172815:-0.00289984
173145:-0.021144
173147:-0.00246727
173229:-0.00745116
173231:0.0113139
173465:-0.0297232
173477:-0.0069947
173479:-0.000201296
173713:0.00929327
173715:0.00224605
173781:-0.0151037
174057:0.027381
174505:0.00100602
174597:-0.00890333
174681:-0.0201137
174683:-0.000827039
174757:-0.0547
174759:-0.00394277
174841:0.00243399
174843:0.00115348
175053:-0.0244022
175101:-0.00212446
175103:0.0141955
175261:-0.000166807
175317:-0.00441086
175541:0.0351801
175543:0.00319832
175565:-0.0216093
175567:-0.00122646
175577:-0.0295666
175579:0.00050784
175649:-0.0281942
175651:-0.00264503
175693:0.020375
175695:0.00820582
175745:-0.00133915
175873:-0.000771784
175921:-0.00971566
175985:0.0059098
176009:0.0144919
176085:-0.013272
176153:-0.0228477
176489:0.0313182
176491:0.00188429
176625:0.0218943
176653:-0.000826111
176681:-0.0200725
176683:-0.00157331
176765:0.00885512
176767:0.00402553
177061:-0.0191739
177097:0.0157314
177101:-0.00501074
177121:0.020199
177185:-0.0260216
177313:-0.0265642
177315:-0.0034458
177425:-0.025499
177481:-0.00554556
177493:-0.0140855
177495:0.00174037
177605:-0.0239643
177677:0.00993651
177813:-0.0166138
177881:0.00989039
177883:0.00121748
177889:-0.0282497
177973:-0.0199376
178013:-0.000983741
178015:-0.00104217
178241:-0.00348286
178297:-0.0191957
178329:-0.0249972
178521:0.0314224
178565:0.0236018
178567:0.00201447
178653:-0.0355712
178655:0.000211301
178961:-0.00670647
178963:0.002097
179009:0.0218943
179085:-0.0240349
179257:-0.00673892
179389:0.00724042
179391:0.000964052
179445:0.0073127
179569:-0.0149296
179713:0.000224084
179837:-0.0360596
179839:-0.0014272
179997:-0.0372298
179999:-0.00254611
180229:-0.0334996
180489:-0.0430157
180597:0.00717763
180721:0.00644382
180729:-0.00306048
180731:0.00225997
180785:0.0116488
181049:-0.0169292
181153:0.0320995
181155:0.00238655
181173:-0.0222561
181217:-0.00780256
181219:0.00248806
181461:0.0169214
181533:-0.00457525
181537:-0.0084754
181539:-0.00219148
181693:0.00697272
181695:-0.000766206
181705:0.012918
181707:0.000885791
181777:0.0135693
181809:0.00738506
181811:0.00298681
182073:-0.0217475
182289:0.0174957
182291:0.0027922
182613:-0.0121459
182615:0.00368384
182853:0.0114752
182855:0.00315715
182913:0.00803959
183021:0.060124
183023:0.00102378
183081:0.00253972
183083:0.0122774
183453:-0.023416
183455:-0.00104437
183589:0.0293374
183591:0.00244913
183681:0.0304686
183689:-0.0340893
183885:-0.0134529
183887:-0.0033376
183969:-0.0338739
183977:-0.0218699
183981:-0.0370262
184241:0.00239716
184337:-0.0293394
184339:-0.0034458
184785:0.000340309
184787:-0.00207439
184969:0.00355957
184971:0.00154222
185057:0.0151519
185059:0.000761958
185105:0.0195412
185107:0.00996838
185501:0.0292456
185521:-0.02662
185709:-0.0100935
185717:-0.0502557
185719:-0.00097469
185913:-0.0185427
185915:-0.000752668
186249:-0.0515591
186251:0.00296769
186257:0.00579164
186405:-0.0128941
186407:0.00409255
186413:0.0119238
186415:0.000840803
186617:-0.00535851
186619:0.000796
186789:-0.0102988
186817:0.0288772
186873:0.00524956
186929:-0.036632
186931:0.00144103
187553:-0.0214721
187645:0.0228539
187669:-0.0230216
187693:0.00178641
188441:0.0173367
188443:-0.000200564
188697:-0.0234111
188729:0.00517096
188731:0.00177645
188901:0.0161063
189257:-0.0191077
189259:-0.0015379
189369:-0.00531597
189371:0.0021431
189389:-0.0466908
189457:-0.0215993
189459:4.0408e-06
189573:0.00201356
189575:0.00296024
189621:-0.0235274
189637:-0.0492381
189805:-0.0239643
189965:0.00367131
190021:-0.0235964
190297:0.0199945
190299:0.0027922
190337:0.0196591
190339:0.00204116
190493:0.0271703
190495:0.00174037
190689:-0.0205961
190713:-0.0267212
190715:0.00208748
190761:-0.0299312
190857:-0.0234352
190929:0.00149329
190931:-0.000866036
190941:0.00503808
190993:0.00691661
191017:0.00942407
191033:0.0528641
191093:-0.0222289
191925:0.00242282
191927:0.000697615
192065:0.0128081
192209:0.00658409
192213:0.0189535
192215:0.00398091
192233:-0.00501678
192235:0.000994504
192241:-0.020816
192245:-0.0203591
192247:-7.06805e-05
192285:-0.00888298
192333:0.0206431
192393:-0.021848
192395:0.00121605
192509:-0.00530786
192511:0.000964052
192649:-0.0155887
192753:-0.0331029
192813:-0.0246785
192817:-0.0252842
192819:-0.000626327
192981:-0.0259941
193129:-0.0146311
193229:0.0019369
193231:0.00148251
193965:-0.0182032
194065:0.0158528
194067:0.00257107
194297:0.00245329
194389:0.00933271
194391:0.00309256
195029:0.0100194
195321:-0.0152277
195333:0.0192106
195335:0.00816865
195453:-0.0187764
195455:-0.000686129
195565:0.005272
195567:0.00214392
195737:0.00571903
195841:-0.0105379
195885:-0.00283412
195933:-0.0380444
195961:-0.0141754
195969:-0.0218573
196001:0.0233805
196003:0.00301388
196029:-0.0108027
196031:0.00103043
196401:0.0225436
196403:0.00247566
196417:-0.00623242
196513:0.0542183
196515:0.00214392
196793:-0.0207025
196885:0.0150373
196887:0.000964052
197293:-0.0355179
197295:-0.00231703
197353:0.0295035
197449:-0.021389
197451:-0.00107011
197485:-0.0182825
197487:-0.000866036
197613:0.0169007
197645:-0.0314444
197647:-0.00172112
197689:-0.0210119
197691:0.00361404
197801:-0.00819214
197849:-0.0176558
197851:0.000207377
198141:0.0570098
198143:-0.000554598
198165:-0.0257083
198185:0.027847
198187:0.00629269
198261:0.0277695
198373:-0.0255486
198375:-0.00328187
198421:0.0144919
198569:0.0168474
199045:0.0225913
199047:-0.00262639
199445:0.0426945
199447:0.00340405
199457:-0.00979044
199459:-0.00139751
199469:-0.0222104
199561:-0.0020254
199563:0.0002251
199589:0.0628256
200369:-0.041526
200445:-0.00518282
200447:-0.000183146
200549:-0.0146351
200551:-0.00150213
200649:-0.0256061
200665:0.00868385
200953:-0.0121373
200955:0.00126684
200957:-0.00778845
201065:0.0059098
201129:-0.0225042
201497:-0.0489355
201499:-0.00218035
201789:0.00707909
201945:0.00568007
201981:0.00543457
202097:0.0205174
202099:0.00821344
202209:0.0221432
202211:0.00894697
202341:-0.0220543
202505:-0.0419453
202589:-0.0133813
203149:-0.0299025
203151:-0.00107011
203281:-0.0065518
203283:-0.00244633
203313:-0.0294546
203315:-0.000930856
203489:-0.024526
203553:0.00367131
203617:-0.0265955
203619:-0.00287576
203633:0.0192171
203801:-0.0333
203873:0.0144919
203909:0.00285497
203911:0.00242705
203981:0.0201168
203983:0.00282333
204169:0.0306897
204229:0.037173
204231:0.00995506
204273:0.00551873
204275:0.00247566
204353:-0.0212149
204413:0.00127306
204453:0.0185512
204457:0.0153029
204669:0.0281424
204713:0.0386981
204717:-0.00107753
204719:-0.00143806
204877:-0.0177591
204913:0.0337967
204915:0.0109811
205209:-0.021441
205505:0.00567365
205517:-0.0275755
205773:-0.016502
205775:-0.000480303
205909:-0.0251298
205911:-0.00172112
205969:-0.0103047
206193:0.0274481
206261:0.0125373
206263:0.00144774
206273:0.0199229
206409:-0.0261495
206537:-0.0357221
206539:-0.00254611
206749:0.0332988
206751:0.00168426
206765:-0.0179641
206767:-0.0014272
207061:-0.0012951
207145:0.0327407
207147:0.00174037
207257:-0.0274104
207465:0.0121825
207645:-0.00815623
207647:0.00102437
207673:-0.0177286
207675:0.00248806
207741:0.0269139
207821:-0.0137366
208053:0.0265177
208055:0.00161138
208077:-0.00134981
208269:0.0320995
208271:0.00238655
208285:-0.0189998
208569:-0.0133344
208617:0.0130291
208619:0.00195163
208677:-0.00372514
208679:-8.43779e-05
208753:-0.00227811
209025:-0.0111737
209161:0.0246826
209169:-0.0178819
209353:-0.00507586
209785:0.0100979
209949:-0.0220928
209951:0.00266302
209981:-0.0498027
210081:0.00772168
210265:-0.00299461
210267:-0.000827039
210285:-0.0374353
210287:0.000667688
210465:0.0194522
210467:0.00724491
210505:-0.00658655
210507:0.000994504
210681:-0.0102743
210705:-0.0114184
210707:0.00359695
210713:0.0165984
211037:0.0213535
211039:0.00197675
211045:-0.0122911
211065:0.0153657
211297:-0.0165049
211299:-0.0014272
211309:0.0188826
211377:-0.0330532
211379:-0.000431173
211645:-0.00681026
211647:0.0048813
211657:0.0283108
211659:6.94021e-05
211801:-0.0508953
212061:0.0175822
212063:0.00847924
212173:-0.00948787
212321:0.0150135
212323:0.00321977
212505:-0.00148096
212581:0.0273781
212583:0.00199245
212865:-0.017803
212867:9.56303e-05
212981:-0.0177258
212983:0.000761958
213125:0.0175929
213177:-0.0208026
213179:-0.000771211
213221:-0.00334746
213409:0.00149577
213411:0.0105918
213537:0.00568007
213925:0.0503801
214029:-0.0503221
214031:-0.0027095
214033:0.0147022
214085:0.0221823
214087:0.00462712
214173:-0.020816
214229:-0.0214293
214261:-0.00991737
214263:-0.000468589
214265:0.0034917
214267:-0.00163856
214277:0.0169485
214329:-0.00198583
214331:0.00282328
214689:-0.0253504
214977:-0.0421574
215145:-0.0131447
215605:-0.00842317
215607:-0.00117518
216033:-0.024526
216117:-0.0113114
216209:0.0765723
216213:0.0198363
216229:-0.0191525
216349:0.00691661
216409:-0.0268834
216573:-0.00159077
216575:0.000186779
216669:-0.0322212
216757:0.000199875
216949:-0.0365203
216951:-0.00097469
217037:0.0192948
217125:0.0270535
217141:0.0161806
217633:-0.0231653
217635:0.000503473
217845:-0.0254132
217847:-0.00180512
217873:-0.0200891
217921:-0.0249018
217925:-0.0258075
217927:-0.00178696
218053:0.0250617
218177:-0.0198658
218179:0.00152941
218477:-0.0574022
218479:-0.00178696
218693:0.0302145
218695:0.00270245
218749:-0.0223426
218751:-0.000827039
218853:-0.0124971
219061:-0.0190912
219161:-0.0100935
219201:-0.024513
219203:0.000316973
219205:-0.0231797
219285:-0.00816854
219287:0.000964052
219313:-0.0330754
219485:-0.0275539
219637:-0.0204948
219901:-0.0282596
220113:0.00245499
220225:3.37895e-05
220227:-0.00231703
220421:-0.00286398
220423:0.0027347
220677:0.0295035
220689:0.0084006
221021:-0.00992845
221125:-0.0395098
221145:0.0257688
221169:0.0318976
221171:0.0030303
221217:0.0426075
221225:0.0111866
221227:0.00358486
221229:-0.0385227
221281:-0.016265
221465:0.00781766
221467:0.00535265
221485:-0.0356256
221829:-0.0057102
221849:0.00229924
221851:0.00296053
221877:2.26016e-06
221879:8.8204e-07
221881:5.83185e-07
221883:8.28005e-07
221889:1.12542e-07
221891:3.55387e-08
221901:4.19899e-08
221903:1.44353e-06
221905:-0.0245449
221907:-0.000596948
221933:0.000505797
221935:0.000158433
221937:-0.000109907
221939:8.38034e-05
221965:-0.0016057
221967:-0.000906611
221969:-0.00166106
221971:0.00127543
221977:0.00143647
221979:0.000697333
221981:1.16051e-05
221983:0.000160164
221985:0.00928657
221987:0.00102483
221989:0.00921566
221991:0.000536313
221993:-0.00255304
221995:0.000102845
221997:-0.00225745
222001:-0.00248234
222003:0.000442772
222005:0.00677251
222007:0.00215928
222009:0.00431665
222011:0.00219361
222013:0.000242032
222015:1.81134e-05
222017:0.00445341
222019:0.000314089
222021:0.00528865
222023:0.00120101
222025:6.54429e-05
222027:0.000426734
222029:-0.00098413
222031:0.000270698
222033:-0.0164231
222035:-0.00207439
222037:0.00280118
222039:0.000790068
222041:0.00476026
222043:0.00255876
222045:-0.0005361
222047:-0.000175173
222049:0.000348792
222051:0.000162489
222053:0.000121881
222055:0.000103134
222057:0.000327017
222059:9.30011e-05
222061:0.000345474
222063:0.000259508
222065:4.0784e-05
222067:0.000194238
222069:-0.000378678
222071:0.000168032
222073:0.00821188
222077:0.00313143
222079:9.22007e-05
222085:0.00120451
222087:0.000342432
222089:0.000899059
222091:0.000211658
222165:-0.00345371
222167:0.000869867
222173:-3.01602e-07
222175:1.65148e-08
222177:-1.23934e-06
222179:8.46285e-08
222181:-6.40349e-07
222183:4.75719e-08
222185:-7.50202e-05
222187:2.56602e-05
222189:-0.000343953
222191:2.31098e-05
222193:-0.000211076
222195:4.74987e-05
222197:4.13906e-05
222199:6.39658e-05
222201:4.98134e-05
222203:5.44201e-05
222205:3.2428e-05
222207:3.96268e-05
222209:7.47701e-05
222211:4.00841e-05
222213:0.000409423
222215:0.000471526
222217:-0.000203386
222219:7.31601e-06
222221:-5.44473e-05
222223:-1.66776e-06
222225:-0.00275596
222227:-0.00136526
222229:-0.00102156
222231:-1.19071e-05
222233:-1.04396e-06
222235:4.5078e-05
222237:-0.00123245
222239:-0.000155456
222241:-0.00175744
222243:-0.000194936
222245:0.000601717
222247:0.000106779
222249:5.88979e-05
222251:-0.000313469
222253:-0.000245531
222255:-1.44527e-05
222257:-0.00203871
222259:-0.000247804
222261:0.000294689
222263:0.000218149
222265:0.000808295
222267:0.000251112
222269:7.693e-05
222271:4.88369e-05
222273:9.9054e-05
222275:4.64541e-05
222277:0.000100293
222279:4.63678e-05
222281:7.37666e-05
222283:4.99137e-05
222285:8.14478e-05
222287:5.02206e-05
222289:8.14504e-05
222291:5.01738e-05
222293:9.42446e-05
222295:0.000103348
222297:4.77143e-05
222299:6.99938e-05
222301:5.36606e-06
222303:7.33697e-05
222305:6.51761e-05
222307:9.16083e-05
222309:-8.78139e-06
222311:5.39513e-05
222313:-1.15648e-05
222315:6.91326e-05
222317:2.85635e-05
222319:8.85272e-05
222321:0.000108211
222323:0.00013363
222325:-0.000198321
222327:0.000241482
222329:-0.000162822
222331:0.000157592
222333:0.000209045
222335:5.14299e-05
222337:6.1504e-05
222339:0.000136043
222341:0.00015131
222343:0.000156986
222345:4.14475e-05
222347:8.9791e-05
222349:-2.47648e-05
222351:0.000109896
222353:7.97545e-05
222355:5.09109e-05
222357:9.24448e-05
222359:4.305e-05
222361:0.000114238
222363:5.51879e-05
222365:0.000100954
222367:4.38523e-05
222369:4.70593e-05
222371:4.36511e-05
222373:4.81129e-05
222375:6.53369e-05
222377:2.53618e-05
222379:4.37874e-05
222381:9.68147e-06
222383:4.59432e-05
222385:7.4437e-05
222387:6.4121e-05
222389:0.0001469
222391:0.000117283
222393:5.45635e-05
222395:4.99169e-05
222397:-3.82639e-05
222399:0.000208706
222401:0.000106329
222403:8.01938e-05
222405:2.76264e-05
222407:5.10667e-05
222409:4.28746e-06
222411:1.03014e-05
222413:4.95348e-06
222415:8.79549e-06
222417:4.52061e-05
222419:4.37763e-05
222421:-3.79011e-06
222423:5.38075e-05
222425:-0.000331972
222427:3.65863e-05
222429:-6.45429e-05
222431:2.22711e-05
222433:-4.31833e-05
222435:2.28971e-05
222437:-6.22098e-05
222439:2.26471e-05
222441:0.000116405
222443:3.04502e-05
222445:-3.14416e-05
222447:6.50723e-05
222449:0.000230404
222451:9.70809e-06
222453:2.69276e-06
222455:5.07884e-07
222457:2.74159e-06
222459:5.34062e-07
222461:0.000876339
222463:0.000211766
222465:0.000536729
222467:0.000217111
222469:-1.41739e-05
222471:4.84869e-05
222473:9.56031e-05
222475:2.88502e-05
222477:2.53022e-05
222479:3.66874e-05
222481:0.000149344
222483:0.000119347
222485:-0.000177428
222487:6.54827e-05
222489:3.99846e-05
222491:5.35186e-05
222493:4.15614e-05
222495:4.19873e-05
222497:4.88137e-05
222499:4.30553e-05
222501:3.02038e-05
222503:6.22132e-05
222505:4.56443e-05
222507:4.13441e-05
222509:2.83269e-05
222511:3.73696e-05
222513:2.48075e-06
222515:0.000176469
222517:0.0017659
222519:0.00057443
222521:2.65278e-05
222523:0.000202135
222525:3.6089e-05
222527:0.000101685
222529:2.90596e-05
222531:4.98165e-05
222533:-0.000174603
222535:0.000128644
222537:8.14916e-05
222539:0.000136024
222541:-1.76493e-05
222543:5.6751e-05
222545:7.18048e-05
222547:4.21196e-05
222549:-0.00036299
222551:8.09911e-05
222553:0.000197887
222555:6.27168e-05
222557:-0.000673375
222559:0.000129106
222561:-0.000209714
222563:-1.66166e-05
222565:7.4028e-05
222567:1.23376e-05
222569:-9.41892e-05
222571:1.78478e-05
222573:-2.90039e-05
222575:1.57077e-05
222577:-2.82144e-05
222579:2.37997e-05
222581:-0.000271725
222583:-1.9167e-05
222585:0.000177527
222587:5.5275e-05
222589:-1.42982e-05
222591:4.82978e-05
222593:1.15827e-05
222595:4.88851e-05
222597:2.03956e-05
222599:4.99625e-05
222601:4.89689e-05
222603:0.000163219
222605:8.35709e-06
222607:0.000272874
222609:-6.82964e-05
222611:3.00021e-05
222613:-5.80698e-05
222615:2.26194e-05
222617:-0.000159
222619:5.0474e-05
222621:0.000172167
222623:0.000102638
222625:-3.57421e-05
222627:6.26897e-05
222629:-2.90189e-05
222631:2.27536e-05
222633:-7.3114e-05
222635:0.000157789
222637:7.14351e-05
222639:2.28313e-05
222641:-2.61234e-05
222643:1.99711e-05
222645:-6.77996e-05
222647:2.18327e-05
222649:-5.99418e-05
222651:2.62319e-05
222653:8.2199e-07
222655:4.95602e-07
222657:1.29014e-05
222659:1.00471e-05
222661:2.33928e-05
222663:8.45371e-06
222665:6.55022e-06
222667:2.57184e-06
222669:6.82289e-06
222671:2.57725e-06
222673:4.67146e-06
222675:2.73971e-06
222677:5.09547e-06
222679:2.75589e-06
222681:5.34334e-08
222683:6.81272e-08
222685:0.000145421
222687:6.64066e-05
222689:-1.71413e-05
222691:8.32719e-05
222693:4.1948e-05
222695:0.000118874
222697:-8.22904e-05
222699:4.30345e-05
222701:9.09959e-06
222703:4.12554e-05
222705:0.000290569
222707:9.42063e-05
222709:-0.000239026
222711:5.66087e-05
222713:0.000381811
222715:0.00022067
222717:0.000590456
222719:0.000140751
222721:7.13588e-05
222723:0.000119811
222725:-1.38476e-05
222727:0.000104855
222729:9.63467e-05
222731:0.000128357
222733:-7.41805e-05
222735:2.28476e-05
222737:6.08935e-05
222739:5.5043e-05
222741:0.000427812
222743:9.93375e-05
222745:-0.000863221
222747:1.22837e-05
222749:0.000620168
222751:0.000201952
222753:0.000491435
222755:0.000128826
222757:6.92994e-05
222759:4.61228e-05
222761:2.10158e-06
222763:0.000159619
222765:6.90865e-05
222767:4.04862e-05
222769:0.000266305
222771:0.000114197
222773:6.29381e-05
222775:4.13109e-05
222777:-1.13425e-06
222779:4.96877e-05
222781:-1.37248e-05
222783:4.92371e-05
222785:1.22646e-05
222787:3.94082e-05
222789:-3.09673e-05
222791:0.000113877
222793:0.000187974
222795:5.43912e-05
222797:-0.000260784
222799:1.31903e-05
222801:0.000593243
222803:0.00022593
222805:0.000741789
222807:0.000976781
222809:0.000101936
222811:0.000179008
222813:0.000476338
222815:7.81099e-05
222817:0.000146133
222819:0.000138321
222821:-0.000581617
222823:1.75995e-05
222825:-0.000272615
222827:6.50679e-05
222829:0.000122311
222831:0.00010063
222833:0.00011463
222835:7.34099e-05
222837:0.000104457
222839:7.70862e-05
222841:7.1156e-05
222843:3.79362e-05
222845:-5.30838e-05
222847:3.44415e-05
222849:-2.79541e-05
222851:3.42698e-05
222853:-9.7869e-05
222855:3.28684e-05
222857:-4.51766e-05
222859:3.08922e-05
222861:-0.000107635
222863:3.12646e-05
222865:-2.61947e-05
222867:2.88058e-05
222869:-2.59595e-05
222871:3.09495e-05
222873:-0.000107638
222875:4.35389e-05
222877:-0.000215721
222879:-2.3328e-05
222881:7.47269e-05
222883:3.56808e-05
222885:9.93092e-05
222887:9.19051e-05
222889:-3.38299e-05
222891:7.53547e-05
222893:-0.000144081
222895:0.000220315
222897:-7.05389e-05
222899:9.98794e-05
222901:0.000100774
222903:9.18423e-05
222905:-5.24473e-05
222907:0.000905071
222909:0.000406611
222911:0.000669106
222913:1.0608e-05
222915:0.000104309
222917:-0.000135359
222919:0.000174305
222921:0.000126496
222923:8.96929e-05
222925:0.000220443
222927:0.000121731
222929:4.84083e-05
222931:0.000319768
222933:-0.00196798
222935:2.26868e-05
222937:-0.000556568
222939:-8.78447e-06
222941:-0.000180506
222943:0.000217472
222945:-0.000282166
222947:5.87046e-05
222949:0.000222642
222951:8.56301e-05
222953:-0.000316482
222955:9.21796e-05
222957:-0.000102424
222959:0.00041157
222961:8.6869e-05
222963:0.000283342
222965:-0.000108556
222967:6.77603e-05
222969:-0.00016062
222971:0.000122461
222973:-8.79482e-05
222975:0.000257428
222977:0.000447886
222979:0.000623565
222981:-6.82931e-05
222983:0.000144184
222985:9.91912e-05
222987:9.51833e-05
222989:0.000219388
222991:6.56616e-05
222993:0.000445322
222995:0.000195131
222997:-0.000390059
222999:0.000119413
223001:0.000101651
223003:0.0001565
223005:8.95663e-05
223007:0.000152058
223009:-0.000482083
223011:1.76934e-05
223013:0.000169922
223015:0.000213259
223017:2.84983e-05
223019:4.01212e-05
223021:0.000273724
223023:0.000155585
223025:-0.000193396
223027:0.000134457
223029:3.68302e-05
223031:2.33516e-05
223033:-0.000207598
223035:8.37134e-05
223037:7.9254e-05
223039:0.000107996
223041:-4.48519e-06
223043:8.50311e-05
223045:-4.95798e-05
223047:8.60246e-05
223049:6.73467e-05
223051:0.000223358
223053:0.000239365
223055:8.2765e-05
223057:0.000174389
223059:0.00010427
223061:7.85633e-05
223063:6.56678e-05
223065:0.00012991
223067:8.9403e-05
223069:-0.000234707
223071:0.000442139
223073:7.36243e-05
223075:0.00016942
223077:0.000197303
223079:6.15753e-05
223081:-0.000555783
223083:-0.000309384
223085:-0.00058002
223087:-0.000175938
223089:-9.37427e-05
223091:-0.00012667
223093:0.000130632
223095:0.000157456
223097:8.27179e-05
223099:7.56381e-05
223101:-6.20587e-06
223103:0.000322401
223105:-4.33317e-05
223107:2.83762e-05
223109:-3.20606e-05
223111:8.45419e-05
223113:0.000134444
223115:5.04454e-05
223117:5.09056e-05
223119:6.73793e-05
223121:0.000142757
223123:0.000129931
223125:9.11254e-07
223127:0.000213501
223129:-0.00223452
223131:0.000115883
223133:4.81801e-05
223135:6.06154e-05
223137:-0.000677216
223139:0.000514241
223141:-0.00703456
223143:0.00604346
223145:-2.85904e-05
223147:0.000174588
223149:-2.58741e-05
223151:0.000509165
223153:0.000112394
223155:0.000594445
223157:-0.00047666
223159:8.9651e-05
223161:-0.000699161
223163:-0.00198611
223165:-0.000190093
223167:0.00155972
223169:0.000423105
223171:0.000923506
223173:0.000331106
223175:0.00127121
223177:0.00368417
223179:0.00114818
223181:6.51049e-05
223183:1.72911e-05
223185:-1.00372e-06
223187:6.46386e-05
223189:4.79475e-05
223191:4.32241e-05
223193:-3.0943e-05
223195:-1.22063e-07
223197:2.97688e-05
223199:3.92958e-06
223201:0.000108839
223203:0.000253114
223205:4.57668e-06
223207:4.14265e-05
223209:1.06446e-05
223211:4.63359e-05
223213:4.58029e-05
223215:7.72103e-05
223217:0.000745675
223219:0.000265016
223221:0.000123398
223223:0.000128502
223225:-0.000712768
223227:1.18291e-05
223229:0.000149185
223231:2.82189e-05
223233:9.19022e-05
223235:2.40663e-05
223237:-7.59268e-06
223239:2.13653e-05
223241:8.06667e-06
223243:2.90195e-05
223245:-0.000116377
223247:9.06842e-05
223249:-0.000127074
223251:4.62753e-05
223253:0.000297284
223255:0.000158774
223257:-5.35924e-05
223259:3.74768e-05
223261:-0.000457863
223263:0.000127987
223265:-2.77597e-06
223267:3.40463e-05
223269:0.000240734
223271:7.73807e-05
223273:-0.000852441
223275:-0.000813256
223277:-0.000326326
223279:6.18467e-05
223281:-0.000109344
223283:2.98249e-05
223285:-0.000101403
223287:4.59597e-05
223289:-0.000136687
223291:2.51878e-05
223293:4.04507e-05
223295:3.87114e-05
223297:7.72986e-06
223299:3.56478e-05
223301:0.000593316
223303:0.000170083
223305:-0.00122347
223307:0.00104887
223309:-0.000267541
223311:0.000453528
223313:-0.00017674
223315:0.000416178
223317:2.11265e-06
223319:8.46189e-07
223321:2.01101e-06
223323:8.53776e-07
223325:2.05943e-06
223327:8.56047e-07
223329:8.24975e-07
223331:3.52861e-07
223333:2.12114e-06
223335:8.38946e-07
223337:1.11645e-06
223339:7.29547e-07
223341:1.4619e-06
223343:7.83965e-07
223345:1.16867e-06
223347:4.25739e-07
223349:8.8709e-07
223351:3.5911e-07
223353:1.15213e-06
223355:4.22216e-07
223357:1.19781e-06
223359:4.23519e-07
223361:1.18821e-06
223363:4.97461e-07
223365:9.90647e-07
223367:4.07511e-07
223369:9.97821e-07
223371:4.05841e-07
223373:9.44748e-07
223375:4.10647e-07
223377:2.1083e-08
223379:1.5343e-07
223381:-2.11465e-07
223383:3.26011e-07
223385:9.94188e-07
223387:4.24898e-07
223389:6.9097e-07
223391:2.18245e-07
223393:-6.09138e-08
223395:4.23195e-07
223397:-4.21751e-07
223399:3.28801e-07
223401:1.97266e-06
223403:3.95729e-07
223405:-1.91554e-06
223407:3.17742e-07
223501:0.000135252
223503:0.000154491
223505:2.11447e-06
223507:8.46492e-07
223509:6.88411e-05
223511:4.92878e-05
223513:0.00099491
223515:0.000746897
223517:0.000320334
223519:0.000264936
223521:1.61524e-06
223523:1.06622e-07
223525:7.73233e-08
223527:-1.14121e-07
223529:3.53366e-06
223533:2.9741e-06
223535:3.48235e-07
223537:1.78483e-06
223539:9.73705e-07
223541:-3.26682e-06
223543:2.05736e-07
223545:-5.48132e-07
223547:5.30948e-07
223549:-9.11812e-07
223551:3.28996e-07
223553:1.025e-07
223555:6.24526e-07
223557:-3.10716e-07
223559:4.04509e-07
223561:-2.56884e-06
223563:-4.46366e-08
223565:3.81635e-07
223567:2.14626e-07
223569:7.44506e-07
223571:6.76599e-08
223573:-8.9563e-08
223575:2.72755e-07
223577:1.12195e-06
223579:-2.81936e-08
223581:-9.61706e-07
223583:8.43955e-08
223585:-6.62537e-07
223587:1.31214e-07
223589:8.62215e-07
223591:1.83458e-07
223593:-2.81283e-06
223595:-2.25242e-07
223597:1.93321e-07
223599:3.48693e-07
223601:-1.06517e-07
223603:-5.46759e-08
223605:-1.98988e-06
223607:-1.37863e-07
223609:0.0012619
223611:8.53528e-05
223613:1.10102e-05
223615:-7.30862e-05
223617:0.00273302
223621:0.00139344
223623:0.000140421
223625:0.000191051
223627:0.000403685
223629:-9.64147e-05
223631:1.81539e-06
223633:-1.49991e-05
223635:0.000201048
223637:-6.81848e-06
223639:0.000116557
223641:-7.06223e-06
223643:0.000328644
223645:2.37667e-05
223647:0.000134522
223649:-5.81775e-05
223651:6.00745e-06
223653:0.00011326
223655:9.24556e-05
223657:0.000244995
223659:3.35713e-05
223661:5.83135e-05
223663:0.000109499
223665:-3.11245e-05
223667:-2.62985e-05
223669:6.33043e-05
223671:8.64482e-06
223673:-1.23786e-05
223675:6.84914e-05
223677:0.000119993
223679:5.09422e-05
223681:1.2046e-05
223683:-7.8324e-05
223685:-3.17343e-05
223687:2.57942e-05
223689:4.07176e-05
223691:-2.64888e-05
223693:0.000137814
223695:3.81504e-05
223697:8.96967e-06
223699:1.2674e-05
223701:0.000154482
223703:8.80163e-05
223705:0.000171623
223707:0.000182499
223709:0.000121102
223711:0.000520093
223713:2.15865e-06
223715:8.85007e-07
223717:2.33555e-05
223719:7.1065e-05
223721:2.18351e-06
223723:8.58137e-07
223725:8.35612e-05
223727:9.68991e-05
223729:2.11884e-06
223731:8.49748e-07
223733:2.25546e-06
223735:8.90034e-07
223737:5.58859e-07
223739:3.68181e-07
223741:1.80798e-05
223743:0.000136989
223745:7.89829e-05
223747:0.000185857
223749:1.3719e-07
223751:4.1901e-08
223753:-0.0056146
223755:0.00126958
223761:0.00260972
223763:0.00152959
223773:0.0112041
223781:0.000382697
223783:0.000178161
223961:-0.0139419
224081:-0.00433388
224083:-0.00220701
224137:0.0266001
224139:0.00308707
224313:0.0139459
224315:0.00180145
224329:-0.00583073
224331:0.00254186
224373:-0.00860483
224465:0.0039557
224605:0.0194618
224607:0.00127917
224717:0.0268372
224769:0.0319003
224771:0.00183435
224893:-0.00614844
224895:0.00165656
224957:-0.0407086
225101:0.0320995
225103:0.00238655
225237:-0.0156571
225325:0.023852
225333:0.00448318
225349:0.00561446
225351:0.00211558
225545:-0.0594712
225561:0.00718934
225573:-0.0192633
225689:0.00916295
225729:-0.000897995
225749:0.0218943
225761:-0.00949082
225763:0.000147496
225785:0.020628
225787:0.0118778
225833:-0.0205807
225835:-0.00104329
225837:0.0176202
225873:0.0059098
226121:0.0278871
226165:-0.0146539
226167:0.000531735
226205:0.00845566
226207:-0.00218282
226533:-0.0336001
226535:-0.0019768
226545:0.0129852
226669:0.00365095
226671:0.00144393
226785:-0.040507
226787:-0.00346206
226813:-0.00523565
226815:-0.00196301
226821:0.00562424
226823:-0.000626327
226889:0.0311766
226901:-0.00728712
226903:-0.00264503
226913:0.00788286
226993:-0.000372218
226995:-0.000626327
227361:0.0346438
227389:-0.00175683
227391:-0.000420512
227761:-0.0307188
227763:-0.00287458
228021:-0.0357871
228109:-0.0061097
228111:0.00125977
228225:0.0109969
228273:-0.0239643
228329:0.0246182
228741:0.00295308
228743:0.00208053
228861:0.0170892
228863:0.00834363
229061:-0.000525719
229133:-0.0281717
229297:-0.00486666
229333:0.00975817
229457:0.0096897
229613:-0.00900669
229661:0.00710387
229663:0.00103803
230133:0.00593882
230233:-0.00673892
230253:-0.00657243
230781:0.00924325
230783:0.00204116
230821:-0.0226374
231097:-0.0116339
231099:-0.000402166
231125:-0.0109185
231127:0.00103043
231221:-0.0108044
231289:-0.0147162
231445:0.00593017
231447:0.00233516
231493:-0.00220091
231495:0.00111927
231629:-0.014646
232077:0.0197914
232113:-0.0140183
232115:0.00338591
232241:-0.033908
232243:0.00263848
232329:-0.0116647
232331:0.00208748
232345:0.0269655
232673:-0.013753
233153:-0.000627043
233155:0.00459194
233177:0.0138756
233289:0.00490384
233291:0.00195163
233401:0.00268816
233673:-0.00488791
233675:0.0109648
234049:-0.0261477
234125:0.0024589
234177:-0.00976896
234179:0.00100476
234201:0.0207673
234229:-0.00303592
234361:0.0127428
234449:0.0397724
234573:-0.0196473
234757:-0.00365058
234759:-0.00107011
234825:0.0210784
234827:0.00152941
234989:0.0120716
234991:-0.000579279
235321:-0.0324286
235323:0.00050784
235505:-0.00992845
235597:-0.0259567
235701:-0.0181794
235717:0.0125869
235719:0.000885791
235733:-0.015968
235873:-0.000987503
235875:0.00883809
236185:-0.0158206
236413:0.00758549
236529:-0.00349711
236605:-0.0174114
236607:-0.00139751
236769:-0.0410887
236969:-0.0447954
236971:-0.00285351
237417:-0.0290742
237419:-0.00298994
237425:0.0435912
237427:0.000190761
237485:0.00373487
237487:0.00275901
237697:-0.011275
237737:-0.005128
237753:0.0198363
237989:0.031936
237991:0.00861463
238113:-0.02091
238361:-0.0301177
238363:-0.00143806
238413:-0.0228783
238733:-0.0149292
238869:-0.0103649
238981:0.022707
239061:0.00241487
239077:-0.0452506
239079:-0.00264503
239101:0.012974
239365:0.0237112
239413:-0.000166807
239793:0.00566365
239795:0.00284534
239881:-0.0218779
239981:0.0166085
239983:0.00758854
240169:-0.0146351
240171:-0.00150213
240277:-0.000674869
240279:0.00140344
240417:-0.0269865
240509:-0.0385791
240511:-0.00285351
240513:0.00628879
240515:0.00174037
240609:-0.031727
240611:0.00142398
240889:-0.0266448
240897:0.00956041
240899:0.00161716
240961:0.0226399
241421:-0.0346496
241423:-0.00264503
241813:-0.0222463
241917:-0.00258652
241919:0.00292031
241937:0.00593882
242189:-0.0156571
242229:-0.00759683
242231:0.00217428
242313:-0.012875
242315:0.00287158
242333:0.0296968
242345:-0.011263
242469:0.0240744
242497:0.0102935
242769:-0.0146696
243113:0.0269815
243115:0.00144457
243157:-0.0141754
243353:-0.0753362
243355:-0.00178696
243469:-0.0263598
243471:0.00338591
243477:-0.00759052
243829:0.0176107
243831:0.0115776
244281:0.00202687
244861:-0.00963389
244863:-0.00169537
244957:0.0207521
244959:0.00161853
244993:0.00476386
244995:0.00395611
245033:0.0215257
245293:-0.015405
245295:-0.000389924
245529:-0.0155887
245637:-0.064558
245639:-0.00168667
245741:0.00446279
245743:0.0115776
245801:0.0334116
245809:0.0291898
245811:0.00296203
246617:0.00685099
246619:0.00369588
246633:0.0264818
246673:-0.0618687
246769:0.0145878
246771:0.00199903
246849:0.00447424
246851:0.00162267
246873:-0.018856
246921:-0.0244689
247001:0.00198103
247003:0.000761958
247065:0.0177174
247067:0.00293211
247205:-0.0239643
247493:-0.0246108
247585:-0.0211913
247605:-0.0303977
247607:-0.000866036
247861:-0.0110866
247863:0.000796
247921:0.0278087
247923:0.00761166
248061:0.0406175
248109:-0.0157622
248111:-0.00104217
248169:0.0144905
248197:0.0201911
248199:0.00821344
248297:0.0309073
248313:0.0208568
248315:0.00820109
248433:-0.0307267
248435:-0.00178696
248441:0.0192948
248673:-0.00201288
248685:0.0158121
248753:-0.015266
249093:-0.0524221
249095:-0.000771211
249149:-0.0169201
249293:-0.0407305
249295:-0.000980462
249341:-0.00497133
249377:-0.0176414
249657:-0.0141754
249673:-0.0231347
249841:-0.0257756
249843:0.00199903
249885:-0.0249028
250301:-0.0049458
250313:-0.0221082
250329:-2.17995e-05
250453:-0.000102038
250469:0.00490285
250497:-0.0280702
250769:6.81807e-05
250771:0.00222973
251045:0.0136712
251047:0.00469236
251049:-0.00130914
251289:-0.0953982
251291:-0.00523624
251349:-0.0193755
251351:-0.00131051
251421:0.00598008
251423:0.00148403
251505:0.0128299
251573:-0.0077085
251575:0.00109562
251753:0.00894482
251825:0.00969236
251827:0.00202774
252113:0.0275487
252115:0.00144457
252245:-0.0228566
252265:-0.0120626
252849:0.0460431
253061:-0.0118993
253063:-0.000183146
253077:-0.0102337
253253:-0.00181734
253255:0.00306637
253345:-0.0229136
253393:-0.0126157
253395:0.000770637
253509:0.00150737
253511:0.00247566
253517:-0.0511304
253519:-0.00107011
253601:-0.0281269
253813:-0.0315411
253941:0.0131939
253943:0.00137478
254069:-0.0379312
254081:-0.0152347
254401:0.0030269
254557:0.00740458
254559:0.00123815
254965:-0.000677468
255045:-0.0275682
255047:-0.00637214
255081:-0.0184773
255325:0.00494918
255327:0.000584456
255601:-0.0183231
255637:-0.0156211
255639:0.00128887
255745:0.0024946
255747:0.000740347
255873:-0.0131564
255875:-0.000771505
256125:-0.0276265
256601:-0.0260785
256605:-0.0385048
256693:-0.0219303
256695:-0.00420195
256733:-0.0388611
256735:-0.00394277
257157:-0.0255614
257159:-0.0058603
257309:-0.0158788
257311:0.00130403
257317:0.0137883
257333:-0.0222203
257335:-0.000917058
257421:0.0275345
257497:0.00616795
257499:0.00284497
257561:-0.035829
257563:0.000347677
257649:-0.0384148
257651:-0.00270843
257657:-0.00739973
257659:-0.00104217
257677:0.0193682
258029:-0.0246855
258031:-0.00127551
258041:-0.000369887
258157:0.00188272
258365:-0.0248284
258629:-0.0250893
258641:-0.00267003
258643:-0.000353601
258829:0.0241016
258831:0.00125358
258929:-0.0188513
258941:0.0202551
258943:0.00822661
258961:0.0272824
258969:0.0285009
259041:0.0634101
259043:0.00123761
259089:-0.0262928
259101:-0.034042
259103:-0.000431173
259245:0.0150177
259269:0.0177229
259271:0.00276216
259321:0.0212077
260205:0.0110474
260289:-0.0218699
260405:0.00145559
260407:0.000595866
260437:-0.0215043
260505:-0.000266451
260605:0.038318
260607:0.00210698
260845:0.0320381
260853:-0.0111802
260985:0.0320381
261517:-0.0203789
261519:0.00188628
261573:0.0160205
261575:-0.00150213
261609:0.00544101
261611:0.00249563
261889:-0.0255535
261965:-0.00717421
261967:0.00100246
