Version 8.7.0
Id 
Min label:-8.81492
Max label:40
bits:18
lda:0
0 ngram:
0 skip:
options: --cb 2 --cb_explore 2 --cb_type dr --cbify 2 --csoaa 2
Checksum: 32205155
:0
25:0.0221645
177:-0.022776
181:-0.0242826
183:-0.00081562
525:0.00352156
789:0.00911243
791:0.000469406
817:-0.00141106
853:0.0173073
855:0.00835812
941:-0.0352041
977:0.00705708
989:-0.0417274
991:-0.00160782
1201:0.002348
1209:0.0159184
1211:0.00267561
1273:0.0338163
1277:0.0234806
1485:0.055831
1487:0.00355852
1649:-0.0251483
1651:-0.00320559
1905:-0.0184364
2057:0.004462
2105:-0.0250503
2133:0.00359601
2135:-0.000659214
2341:0.0215945
2413:-0.0156827
2429:0.0614392
2431:0.00159952
2461:-0.019934
2473:0.018748
2475:0.00244962
2593:-0.0338138
2595:0.000151054
2645:-0.0316288
2693:-0.0060599
2697:-0.0269139
2757:-0.0158773
2773:-0.0143456
2825:-0.0247237
2829:-0.0516413
2837:-0.00366372
2839:0.00218497
3009:0.0330912
3017:0.0311656
3065:-0.0179306
3067:-0.00084227
3233:-0.0146335
3241:-0.0286126
3437:-0.0209028
3501:-0.0204066
3725:0.00118976
3765:-0.00683147
3789:-0.01759
3791:0.00204602
3941:-0.00573505
4013:-0.0433434
4015:-0.00151664
4041:-0.0115803
4161:-0.00117554
4169:-0.0239116
4171:-0.00173713
4209:-0.0256776
4237:0.0236361
4257:-0.0186422
4259:-0.00235831
4309:-0.0572283
4311:-0.00360464
4409:-0.00849122
4437:-0.00167065
4439:-0.000428393
4545:-0.0151489
4649:-0.00482533
4661:-0.0169439
4663:-0.0012205
4717:-0.0218379
4761:0.0366287
4763:0.000469855
4773:-0.0387399
4775:-0.00285655
4781:-0.028755
5029:-0.0333793
5217:0.0199406
5265:-0.0141403
5313:0.0160356
5315:0.00151206
5677:-0.00397301
5817:0.0203611
5925:0.000610968
5927:0.000984799
6289:-0.0277919
6291:-0.00292104
6357:-0.0059292
6385:0.0199389
6387:0.00809245
6705:0.0174477
6707:0.00269314
6721:-0.0108784
6965:-0.00750217
7333:0.00199998
7349:0.0156327
7405:-0.0239317
7407:-0.000679183
7449:-0.0181434
7451:-0.000395188
7489:-0.0072921
7613:0.0216005
7615:0.00290631
7657:-0.023742
7659:-0.00347516
8037:-0.051605
8449:-0.00777862
8629:-0.00216387
8741:0.0124364
8743:-0.000106608
8785:0.00350945
8817:-0.0381743
8829:0.0316607
8831:0.00178919
8965:-0.0253688
9057:0.00336795
9059:0.00113016
9101:0.00384792
9113:-0.0324092
9161:-0.0117571
9163:-0.002207
9317:-0.032913
9319:-0.000216041
9325:0.00590722
9369:0.00322985
9617:0.0201022
9619:0.00966461
9625:-0.00272586
9627:0.00115569
9881:-0.024848
9883:-0.00271249
9953:-0.0295544
9955:-0.000879192
10189:-0.0134685
10191:0.000976319
10297:0.0108188
10373:-0.0314645
10473:0.0106022
10653:0.0192287
10957:0.0026264
10981:-0.00229758
10983:0.00269314
11121:-0.00771405
11123:-0.00106674
11133:0.028036
11277:-0.0246379
11279:-0.000933183
11285:-0.00969968
11287:0.00496889
11349:-0.022155
11465:-0.0203801
11529:-0.0149293
11565:-0.0216017
11567:-0.000497857
11629:0.00579443
11633:-0.0148952
11729:0.0265263
11853:-0.0221024
11855:-0.00173713
11985:-0.0126191
11993:-0.0539098
12033:-0.0254955
12035:0.000227819
12113:-0.0233548
12173:-0.028093
12175:-0.00557661
12177:0.00525513
12225:0.00647943
12345:-0.0244193
12347:-0.00275008
12393:-0.048422
12445:-0.0162933
12447:-0.00294411
12541:0.0106022
12649:-0.0269116
12717:0.00581272
12737:-0.0362666
12853:-0.00447179
12855:-0.000456506
12981:0.0129385
13097:0.034942
13099:0.000617796
13417:-0.0169997
13419:0.00160688
13489:0.0193171
13545:-0.00676826
13547:0.00393597
13849:-0.0290625
13897:-0.0261578
13993:-0.0172715
14297:-0.0169722
14357:0.0256907
14385:-0.0234184
14387:-0.00104043
14645:-0.0177493
14769:-0.0106243
14953:0.010016
15233:0.0167426
15281:0.0336251
15283:0.00793039
15329:0.0235798
15369:0.0107661
15371:0.00236364
15637:0.0281934
15657:-0.0227193
15661:0.0197265
15705:0.0206663
15707:0.00967974
15757:-0.0059292
15833:0.00419061
15835:0.00162787
15861:-0.00755077
15863:0.000946995
15869:0.0333891
15871:0.0105638
16057:0.0127983
16201:0.00152101
16209:-0.0264468
16211:-0.000739327
16237:0.0252201
16497:0.00909657
16499:6.9832e-05
16649:-0.0260445
16709:-0.0386482
16717:-0.0125206
16719:0.00423091
16869:-0.0347428
16877:-0.0203039
16879:-0.00269236
16897:0.0196431
17073:0.025848
17137:0.0205657
17161:-0.0188415
17277:-0.0413395
17281:0.031456
17283:0.00191085
17657:0.0263004
17705:-0.0150476
17725:-0.0151438
17727:0.0039786
17873:0.00923993
17885:-0.0127131
17887:0.000863177
18041:0.0203424
18043:0.00205062
18213:-0.00683147
18261:0.0301206
18277:-0.0412694
18279:0.000119259
18321:0.0126319
18457:-0.0412448
18469:0.0275124
18701:-0.028151
18703:-0.00161347
18777:0.000106834
18829:-0.0141864
18921:-0.0114106
18923:0.00199499
19021:-0.048912
19023:-0.000235121
19073:0.0267226
19075:0.00159952
19289:0.00524455
19291:0.00265232
19305:-0.00553
19307:0.000984981
19373:0.00435653
19405:0.0204922
19481:0.00377545
19749:-0.0304655
19751:-0.00133334
19785:0.0177289
19849:-0.0208842
20101:-0.00405836
20103:0.00133396
20297:0.00404651
20309:0.0278017
20317:0.0138611
20319:0.000742087
20453:-0.00623115
20455:0.000946076
20561:0.00948381
20593:-0.0289209
20609:0.0152898
20611:0.0077153
20637:-0.00146666
20639:0.00268688
20717:0.0199467
20719:0.00808658
20809:-0.0456464
20811:-0.00475947
20861:-0.0103686
20863:-0.00247593
20889:-0.0697214
21045:0.0230144
21097:-0.00422255
21233:0.0165429
21235:0.00714549
21553:-0.0237897
21555:-0.00117358
21653:0.0158233
21821:0.0178972
21823:0.000722818
21921:-0.0311515
21923:-0.00081562
21945:-0.0299877
21973:-0.0370202
22001:-0.00695943
22025:-0.0449132
22093:-0.00811603
22213:-0.00851243
22225:0.0207321
22365:-0.0402103
22377:-0.0241899
22469:-0.0179561
22473:-0.00243915
22517:0.0424495
22673:-0.0121898
22675:-0.00257344
22693:-0.0148882
22695:0.000914305
22929:0.0233152
23041:-0.0566214
23043:-0.00222017
23085:0.000305068
23087:0.00192367
23109:0.0202289
23133:0.0308242
23289:-0.014234
23361:-0.0115433
23373:-0.0148441
23385:0.0194613
23387:0.00190005
23437:-0.0189467
23439:0.00199499
23509:0.0160659
23537:0.0170252
23539:0.00129093
23601:-0.0193777
23603:0.00177422
23777:-0.0385469
23779:0.000608212
23793:0.00643738
23849:-0.0203542
23851:-0.00197534
23865:-0.0229571
23897:-0.0204771
24117:-0.099289
24119:-0.000885624
24189:-0.0112829
24191:0.00061914
24221:-0.0526176
24223:-0.000933183
24233:-0.0324145
24235:-0.00260455
24361:-0.0209609
24363:-0.000975698
24533:-0.0289941
24569:0.05095
24617:0.0219003
24669:0.0293559
24671:0.00199499
24853:-0.00632537
24855:0.0019866
24877:-0.0081149
24929:-0.0210322
25049:0.0193171
25089:0.0426127
25091:0.00206695
25121:0.0111293
25123:0.00157801
25205:0.0295145
25453:-0.00875904
25455:0.00199499
25501:-0.0196061
25545:-0.02765
25553:-0.0199802
25837:0.0190915
25873:0.00130421
26109:-0.026755
26197:0.0255992
26445:-0.000620114
26457:-0.0804539
26459:-0.00203635
26509:0.0206725
26865:0.0165799
26937:-0.0251575
26953:-0.00935009
27065:-0.0278001
27125:0.0536487
27325:0.0195473
27337:0.0560837
27339:-0.000723143
27349:-0.022571
27353:0.0187928
27355:0.00364866
27381:0.0156334
27389:0.0162879
27505:0.00908797
27509:-0.0187762
27661:-0.00900084
27663:-0.000258253
27761:0.00811951
27763:0.00280458
27793:0.00526011
27795:0.000288579
27841:-0.0220438
27843:0.000722818
27897:-0.0427609
27899:-0.000420081
27985:0.0845453
27987:0.00104505
28021:0.0156825
28097:-0.0203745
28099:-0.00333755
28117:-0.0100149
28269:-0.00298024
28325:0.015432
28327:0.00267813
28481:0.0185125
28483:0.00840308
28661:-0.00198041
28663:0.00137858
28885:-0.000299645
29313:-0.0729583
29315:-0.0020258
29365:-0.0122962
29367:0.000718866
29425:0.0316496
29427:0.00191085
29501:-0.0114394
29577:-0.00520741
29669:-0.0209458
29721:-0.00134895
29809:-0.00222366
29921:-0.00983374
29923:-0.000361128
29933:-0.02672
29935:-0.000975698
30089:-0.0291367
30093:0.00288793
30389:-0.00606339
30391:0.0019973
30461:0.0264583
30463:0.00190005
30469:0.0648043
30471:0.00150198
30573:-0.0152044
30597:0.00319561
30599:0.00849835
30641:-0.00611649
30643:-0.00227405
30689:0.0264695
30925:-0.0278099
30953:0.0221622
31053:0.0004199
31309:-0.0181272
31311:0.000946995
31337:-0.0225807
31341:-0.020581
31385:-0.0195377
31387:-0.00081562
31441:-0.0689618
31443:-0.00361338
31557:-0.0222001
31559:-0.00286661
31613:-0.0208146
31937:0.0292837
31961:0.0256154
32089:0.0554612
32091:-0.00110791
32113:0.00853837
32137:-0.00215378
32139:-0.00257344
32305:0.0199835
32307:0.00809289
32365:-0.0303393
32367:-0.00106674
32621:-0.000678034
32623:6.74794e-05
32693:-0.0361349
32717:-0.0323031
32889:-0.00764779
32891:0.000543487
33341:-0.0101286
33397:0.00864563
33657:-0.00520825
33677:0.0306859
33679:0.0018278
33737:-0.0234475
33761:-0.000737346
33763:0.000227819
34073:-0.0197252
34109:0.00456941
34111:0.000323478
34461:-0.0193344
34517:0.000114094
34553:-0.0138733
34555:0.000976319
34577:0.000643901
34579:-0.00040494
34645:0.019646
34709:0.0245151
34711:0.0015037
34785:0.0316822
34787:0.00228323
35049:-0.01478
35051:0.000677545
35193:0.00679395
35195:0.00104505
35253:-0.0129083
35689:0.00883671
35849:-0.0335617
35869:-0.0179202
35877:-0.0118742
35879:-0.00141461
36165:-0.0171525
36397:-0.00814079
36477:-0.0289426
36479:-0.000641905
36557:-0.0299519
36729:0.0256869
36869:-0.00649445
36871:-0.000503744
36893:-0.00209251
36895:-0.000428393
37037:-0.0193079
37039:0.000165542
37113:-0.054392
37115:-0.00168404
37401:-0.00634723
37403:-0.00140442
37465:0.0108055
37467:0.00221651
37729:-0.00401346
37849:0.00130421
37853:-0.00385343
37873:0.0159698
37875:0.00262343
37937:-0.0128922
37939:-0.000497857
38141:0.0128462
38309:-0.0163925
38409:-0.0265339
38411:0.000256388
38461:-0.0524183
38463:-0.000223535
38589:-0.0132967
38617:0.0278567
38789:-0.00584051
38791:0.00288534
38921:0.0102656
38923:0.00131269
39237:-0.0192328
39239:0.00199499
39745:0.00821659
39747:0.00218497
39797:0.0230261
40005:0.0122701
40093:0.0194099
40165:0.00416886
40167:0.00210817
40253:-0.0181594
40317:0.0185012
40345:0.00156562
40429:-0.0135044
40569:0.0128423
40917:-0.0203937
40953:-0.0203649
41089:0.00776643
41091:0.00219642
41093:-0.0114123
41095:0.00831612
41145:-0.0152769
41169:-0.024536
41277:-0.00103715
42181:0.0281876
42265:-0.0393583
42267:-0.00150921
42413:-0.0108545
42513:-0.040629
42569:0.0212823
42789:0.0347307
42791:0.000742087
42805:-0.0144791
42807:0.00158798
42817:-0.0295324
42819:-0.00130184
42957:0.0257312
42959:0.00158798
42969:-0.0123476
42973:0.0216017
42975:0.0084789
43161:-0.034976
43397:-0.00034067
43399:-0.000708497
43533:0.0199835
43535:0.00809289
43549:-0.0317468
43973:0.00485937
43975:-0.00173459
44029:0.018468
44037:-0.0280884
44109:-0.0223516
44111:-0.00260455
44341:-0.0331986
44343:-0.00141461
44413:-0.0306376
44415:-0.00614429
44437:0.0100964
44477:0.0138981
44517:0.0172293
44573:0.00937223
44575:6.9832e-05
44725:0.0342329
44769:0.00673286
44837:-0.019967
44841:-0.01214
45237:-0.00764222
45305:-0.022742
45369:-0.0150571
45371:0.00339722
45397:-0.000633165
45617:-0.0220156
45713:0.0133006
45741:0.00942302
45743:0.0054144
45861:0.0247046
45957:-0.0319833
46013:-0.0179917
46253:-0.018262
46255:8.26751e-05
46265:-0.0131021
46267:-0.000428393
46309:0.0206106
46311:0.00865759
46397:-0.0216101
46537:0.0029987
46545:-0.0208191
46549:0.0200973
46593:-0.0107263
46797:0.00681729
46913:-0.0556696
46933:-0.00299362
46965:-0.00290148
46993:-0.0149293
47429:-0.0588618
47461:-0.0033414
47463:0.00137299
47529:0.00822148
47537:0.0205036
47539:0.00218497
47773:0.00231576
47821:0.00948381
47869:-0.0146762
47871:-0.00287501
47885:-0.00899054
47887:-0.00126047
47937:-0.0304051
47939:-0.00281309
47965:0.0092118
48037:0.0317502
48169:0.0131521
48225:-0.0258125
48665:-0.0101988
48729:-0.013813
48745:-0.00690202
48747:0.000323478
48933:0.0103918
48949:-0.0219927
49001:-0.0432377
49003:-0.000904709
49109:0.0111925
49111:0.00163412
49253:0.0176028
49469:-0.00761416
49505:0.00935315
49507:0.00676783
49561:0.0103997
49563:0.0131434
49585:0.0125672
49633:0.0376373
49635:0.00319174
49725:-0.0231203
49905:-0.0408004
49907:-0.00160782
50429:-0.00852866
50431:-0.000933183
50581:-0.0210958
50641:-0.0210412
50643:-0.00081562
50673:-0.0133154
50675:0.00289113
50845:-0.0206052
50847:-0.000641905
50905:0.00112044
50907:0.00129093
50933:0.0132943
50981:-0.00970376
50983:0.00100906
51213:0.0109802
51215:0.00336271
51289:-0.0118522
51291:0.00490108
51333:0.0222699
51335:0.000648044
51361:0.0280026
51417:-0.0216987
51457:0.0270573
51629:0.014042
51631:0.0032261
51945:-0.0328919
52057:-0.0228517
52059:-0.000433428
52085:0.0187707
52169:0.00314535
52409:-0.0183865
52411:-0.000272898
52565:-0.0259959
52881:0.00160369
52883:0.00724434
53153:-0.0218453
53157:0.00421804
53241:0.0225342
53273:-0.0123259
53301:-0.0274688
53365:-0.0145283
53549:0.0113298
53553:-0.022481
53569:-0.00165757
53571:0.00203481
53717:-0.0374582
53719:-0.00222017
53765:0.0093899
53767:0.00388456
53925:-0.0402263
53927:-0.00276167
53937:-0.00444674
53939:-0.000361128
54005:-0.0289258
54007:0.0173112
54021:-0.0136454
54023:-0.000739327
54257:-0.00644029
54259:0.000984981
54337:-0.0134586
54457:-0.000490142
54459:0.00100906
54545:0.0240818
54553:-0.0293063
54729:-0.0305409
54741:-0.0284355
54761:0.00168198
54763:0.0105543
54825:-0.00808432
54849:-0.0122425
54851:0.00821535
54937:0.0121782
54939:0.0110677
55005:-0.00998581
55125:-0.0126564
55525:-0.0153864
55869:-0.00608005
55871:0.00130066
56141:-0.0149854
56143:-0.00237807
56177:-0.0166878
56179:0.00203045
56201:0.00715975
56309:0.0101007
56341:-0.0310377
56343:-0.00159945
56401:0.0175805
56403:0.00275132
56557:-0.0234762
56561:0.0152391
56745:-0.00343597
56747:0.000917772
56921:-0.0180622
56969:-0.0489227
56971:-0.0024272
56997:-0.0259616
57013:-0.0206268
57093:-0.00165212
57113:0.0276085
57117:0.0163737
57157:-0.00614369
57159:-0.000428393
57181:-0.0668545
57269:-0.0593186
57365:0.00390319
57437:0.0196578
57545:0.0182202
57609:0.0031243
57677:-0.0180403
57701:0.0273101
57703:0.00254842
57905:0.0199835
57907:0.00809289
57977:-0.0106001
58009:-0.00158957
58077:0.02685
58079:0.00147774
58357:0.00355061
58359:0.0015037
58369:-0.0145287
58373:0.00523389
58375:0.000702053
58701:-0.0221518
58703:0.000976319
59145:-0.0334769
59147:-0.00130184
59181:-0.0432001
59185:-0.0221407
59187:0.000722818
59229:-0.0319201
59231:-0.00189533
59333:0.0361498
59401:-0.0190077
59403:-0.00107681
59433:-0.0142436
59461:-0.0104158
59513:-0.043538
59661:0.0313345
59685:-0.0347375
59689:0.0277083
59825:-0.0296312
59849:-0.0115466
59851:-0.00208959
60053:0.0654103
60077:-0.00198106
60085:-0.0337409
60125:-0.0206768
60153:-0.0172504
60155:-0.000965037
60293:0.0063191
60295:0.00210817
60341:0.0099737
60417:0.0365059
60419:-0.00016101
60501:-0.066556
60503:-0.00189412
60597:-0.0203994
60653:-0.0212444
60655:-0.00150921
60705:0.0193171
60797:-0.0317603
60869:0.0275933
60921:-0.0393889
60923:-0.00260455
61333:-0.0301439
61449:-0.017334
61529:-0.00975779
61531:0.000984981
61641:-0.0252324
61897:0.00110852
61909:0.0375233
61993:-0.0204489
61995:0.000976319
62101:-0.00863863
62221:-0.00986916
62229:0.0159091
62231:0.00784215
62241:0.00771657
62243:0.00396948
62329:-0.0188856
62331:-0.000739327
62353:0.021263
62385:0.00195656
62409:0.0317332
62497:-0.0079033
62605:-0.0332709
62607:-0.00125254
62625:-0.0038529
62627:-0.00228048
62721:0.00868581
62769:0.0148386
62771:0.00147774
62781:0.0251432
62921:0.0204138
62969:-0.0057862
63285:-0.0266163
63349:0.019404
63351:0.00809457
63397:-0.00728118
63399:-0.00202353
63409:-0.0315623
63425:0.0163441
63541:-0.000593338
63543:0.00103109
63597:0.0185788
63765:0.0157151
63893:0.00102014
64025:0.0137428
64027:0.00196414
64233:-0.0105641
64235:0.000264078
64269:0.05518
64313:0.0269567
64315:0.00159952
64569:-0.0198055
64571:-0.00231321
64573:-0.0106001
64649:-0.0201901
64757:-0.00122119
64949:-0.0326804
64969:0.0272238
65185:-0.0142991
65317:0.0328029
65319:0.00181935
65333:-0.00328964
65335:0.00151857
65833:-0.0113445
65835:0.00163441
65993:-0.0196363
66105:-0.024951
66107:-0.00168404
66125:-0.0237495
66145:0.00630131
66147:-0.000801796
66169:-0.0190512
66171:-0.00122582
66357:-0.0429251
66429:-0.0094872
66449:-0.00215771
66497:0.00441564
66499:0.00145052
66505:0.0111427
66507:-0.00152385
66573:-0.0058078
66665:-0.0301625
66989:-0.00174416
67197:-0.0250297
67233:-0.037021
67235:0.00130094
67353:0.000245152
67409:0.0302837
67425:-0.0193049
67441:0.0101319
67443:0.006762
67549:-0.00998465
67633:-0.0208591
67769:0.0185589
67857:0.00403081
67859:0.00268665
67893:0.0174003
67897:-0.0254517
68005:0.0195473
68153:0.0171471
68161:-0.0319156
68163:0.00863446
68193:-0.0733686
68195:-0.00174639
68249:-0.0749941
68251:-0.00188178
68289:-0.00270082
68291:0.000336904
68381:-0.00229671
68449:0.0350009
68451:0.0113316
68565:-0.0060516
68567:0.000984981
68601:-0.00802086
68657:-0.0101037
68659:0.00269314
68797:-0.0264817
68801:0.0161793
68829:0.00116239
68831:0.00130066
68889:0.00461703
68891:0.00104505
69085:0.030114
69087:0.0024746
69089:0.00019996
69091:-0.000504593
69097:-0.00389896
69099:-0.000267797
69213:-0.0202743
69277:0.0251874
69279:0.000617796
69297:-0.00118591
69349:-0.0134309
69425:-0.0230492
69445:0.0144537
69805:0.0272432
69917:0.000705869
69919:-0.00436327
70165:0.0271243
70425:-0.00401346
70737:0.0290218
70765:-0.00873184
70767:0.00105477
70785:0.0203729
70787:0.00809289
70893:-0.00934531
70895:0.00251623
70941:-0.016813
70943:-0.00072628
71025:0.00325992
71165:-0.0207418
71221:-0.0290349
71281:-0.0273628
71317:0.00276151
71319:0.00373939
71493:-0.0301758
71749:0.0187437
71909:0.0399128
71911:0.00159952
71925:-0.0306056
71927:-0.000739327
71937:-0.00139282
71973:-0.0198265
72049:-0.00385704
72051:-0.000460927
72081:0.0093893
72089:-0.0227145
72221:0.00825463
72223:0.000511556
72445:-0.024356
72447:0.00260082
72481:-0.0461804
72601:-0.0115335
72603:0.00298833
72741:-0.0159995
72933:0.0204965
73077:0.0039029
73079:-0.00173713
73121:0.0135371
73123:0.000722818
73149:-0.0285163
73237:0.0282508
73281:-0.0111364
73341:-0.0338356
73343:-0.00122582
73361:-0.0163365
73363:-0.0012205
73477:0.0131521
73509:0.0269333
73569:0.00642153
73669:-0.016088
73741:-0.043163
73805:0.0334458
73869:-0.00491552
73871:-0.000275856
73881:-0.0226356
74017:-0.00274355
74019:0.00113016
74093:0.0120044
74113:0.00130421
74153:-0.0271185
74193:-0.00371471
74195:0.00223174
74293:0.01208
74295:0.00190005
74321:-0.00691174
74429:-0.0413759
74431:-0.000933183
74473:-0.0185738
74477:-0.0127643
74645:-0.0233273
74657:-0.0262625
74677:0.00535447
74679:0.00384267
74821:-0.0430997
74965:-0.0144254
74967:0.0115613
74981:-0.021847
75089:0.0198855
75145:0.0346934
75197:-0.00249317
75209:-0.0200011
75389:-0.00175365
75489:-0.0173486
75491:0.0119436
75529:-0.0303105
75531:-0.0017412
75541:-0.0165747
75543:0.00140664
75557:-0.000729738
75645:0.0130548
75705:0.00130421
75741:0.00285237
75743:-0.000395188
75829:-0.0059292
75865:-0.0235755
76229:0.0234395
76265:0.00547251
76569:0.00161827
76581:-0.0123627
76583:-0.00192346
76585:-0.00372837
76587:-0.00130184
76629:-0.026424
76757:-0.00124908
76897:-0.0347963
76899:-0.00254575
76913:-0.0115433
77013:0.0143109
77015:0.00212864
77349:-0.00496641
77351:-0.00265273
77389:0.0170472
77391:0.00290631
77405:0.0172159
77617:0.0101295
77625:-0.0123476
77941:0.0550255
77989:0.0181482
77991:0.00799126
78061:-0.0291976
78063:-0.000879192
78169:-0.00421062
78193:-0.0215322
78195:0.000453221
78269:-0.00117108
78271:0.00215923
78581:-0.0252541
78757:-0.0113675
78909:-0.0227751
78911:-0.00106674
78969:-0.022429
79013:0.0290628
79057:-0.000299879
79073:-0.0389063
79075:0.00205062
79121:-0.0185203
79285:0.0116461
79429:-0.0359797
79431:-0.00276167
79453:-0.0377598
79469:-0.0039418
79557:-0.0119159
79561:0.0259965
79745:-0.0216498
79747:-0.00197613
79857:0.0198488
79917:0.00655092
79919:0.00164169
80057:-0.0207774
80181:-0.0300471
80309:0.0123475
80311:0.00330652
80393:-0.00606036
80409:-0.0210007
80493:-0.0196204
80537:-0.0163312
80573:-0.00955073
80575:0.00104505
80673:-0.0351729
80717:-0.0421586
80719:-0.000889873
80793:-0.0225851
80929:0.0268343
81077:-0.0309686
81079:-0.00160782
81281:-0.0123938
81283:-0.00115558
81289:0.00265067
81313:-0.00843851
81421:-0.0343275
81533:-0.0388821
81535:-0.00243996
81653:-0.0146965
81655:-0.00133172
81833:0.0345555
81857:-0.0682013
81859:-0.00140868
82001:-0.0318507
82029:-0.0136434
82031:0.000825661
82077:-0.00122047
82079:0.00233164
82089:0.0184611
82091:0.0127589
82201:0.0190915
82273:-0.00528647
82429:0.0177391
82461:-0.000633165
82485:-0.00614113
82487:0.00230256
82617:-0.029744
82619:0.0124586
82693:0.0129062
82695:0.00230369
83029:0.0254707
83385:-0.0167246
83387:-0.000638176
83589:-0.0235235
83593:-0.0196101
83673:0.0435011
83675:0.00206966
83697:0.0301198
83805:0.0243057
84013:-0.0193944
84015:-0.000806553
84049:-0.00868505
84051:0.0012709
84117:-0.0355757
84161:-0.0717431
84163:-7.2348e-05
84221:0.00118976
84313:0.025752
84315:0.00190005
84397:0.0391365
84399:0.00228323
84649:-0.0247393
84757:0.00918889
84829:-0.00285941
85009:0.0334563
85101:-0.0956576
85103:-0.0050027
85109:0.0207063
85285:-0.0191676
85287:-0.00084227
85297:0.00931925
85501:0.00831838
85617:-0.0223836
85629:0.00130421
85777:-0.037998
86033:0.00656072
86053:-0.0143262
86055:-0.00140442
86125:-0.00822719
86127:-0.00183849
86189:-0.0364922
86213:0.0153808
86265:-0.0225738
86437:-0.0244898
86545:-0.00304475
86569:0.0100023
86571:0.000984981
86837:0.0287982
87133:0.0164343
87135:0.00306552
87261:-0.0279935
87263:-0.000723143
87353:-0.0142941
87373:0.0408562
87381:0.0920601
87383:0.00259462
87677:-0.0400053
87679:-0.00221809
87757:-0.0242694
87759:-0.00106247
87897:-0.0109993
87899:0.00104505
87909:-0.00155464
87911:0.00854468
87953:-0.0243027
88017:-0.0201137
88019:-0.00113495
88233:-0.00349353
88235:0.000946076
88265:-0.0122331
88341:-0.0301876
88349:-0.0362766
88437:-0.027689
88439:-0.000975698
88681:0.0239332
88683:0.00159952
88713:0.0183649
88741:0.0232977
88743:0.00328531
88821:-0.0156264
88823:0.00132409
88937:-0.0622839
88939:-0.00126047
88985:-0.0437342
89177:0.000822845
89357:0.0234272
89359:-0.000231741
89361:-0.0227244
89363:-0.00183849
89373:-0.00181279
89521:0.00705395
89523:0.00221651
89697:0.0148966
89699:0.00653502
89737:-0.0253206
89805:-0.00670586
89901:0.0191097
89903:0.00806611
89949:0.00876164
89969:0.0073146
89971:0.00114968
90097:0.00702907
90241:-0.0324806
90369:-0.0150781
90681:0.0227501
91077:-0.0144704
91079:0.00100906
91101:-0.0101839
91277:0.0176587
91297:0.00433428
91469:0.00573516
91471:0.00199499
91509:-0.0176465
91511:-0.00321182
91573:0.0163897
91949:-9.95842e-05
92021:0.0191532
92023:0.0113316
92169:-0.0118085
92171:0.0012709
92249:-0.0151579
92381:-0.0232848
92383:0.00133473
92397:-0.00912031
92509:0.0108489
92511:0.0017745
92877:-0.0270674
92977:0.0209464
93293:0.0060202
93295:-0.000713518
93441:-0.0196469
93609:0.0144941
93657:-0.0107918
93659:-0.00321182
93685:-0.0187865
93801:-0.0139754
93803:0.00118149
93817:0.0209998
93845:-0.0514546
93847:0.0029825
94077:0.0239149
94129:-0.00702196
94131:0.000801756
94229:-0.0345265
94231:-0.00130184
94277:-0.000477443
94477:-0.0234011
94633:-0.00122119
94769:-0.0231062
94785:-0.0340367
94825:-0.0429264
94989:-0.0010475
94991:-0.000708497
95273:-0.0112727
95275:-0.00235831
95313:0.0267701
95357:-0.0130981
95359:0.00365099
95461:-0.0724449
95463:-0.00168404
95565:0.0152671
95567:0.00252414
95653:0.0134349
95657:0.0293851
95659:0.0127355
95953:0.0217158
95955:0.0045648
96209:-0.033499
96353:-0.0190449
96357:0.0240177
96577:-0.0267733
96581:0.00158839
96583:0.000616533
96741:0.0199835
96743:0.00809289
96769:-0.0102938
96771:-0.00234203
96813:0.0130548
96817:-0.0162037
96873:-0.0273857
96913:-0.0123476
96953:-0.0152957
97081:0.0110693
97083:0.000946076
97217:0.0199218
97237:-0.035189
97239:-0.00265273
97273:-0.0325307
97525:-0.025303
97657:-0.00340362
97841:-0.000721698
97843:-0.00222017
97941:-0.0238502
98017:0.0284866
98145:0.0242803
98147:0.00292766
98149:-0.0125871
98151:0.0112139
98281:-0.0747732
98283:-0.00394844
98441:-0.0256577
98443:-0.00319148
98473:0.0049491
98475:0.0089854
98593:-0.0230889
98637:-0.0184364
98653:-0.0255231
98655:0.000195804
98713:0.0288879
98733:-0.00406753
98735:-0.00321182
98813:-0.0111371
98815:0.000976319
98865:0.00158763
99037:0.0137693
99039:0.00313233
99077:-0.0117478
99079:0.00105477
99261:0.0154658
99263:0.00151206
99297:-0.0111585
99677:0.022444
99717:0.017859
99849:0.00432058
99851:0.00142629
99893:-0.0343536
99997:-0.0208743
100353:-0.0327684
100397:0.0221663
100399:0.00190005
100509:-0.00988028
100593:-0.0152866
100645:0.0178406
100647:0.00257075
100949:0.0211078
100969:0.0227735
101133:-0.00921126
101135:-0.00236422
101169:0.0290858
101205:0.0223978
101207:0.00877566
101333:-0.0270685
101341:-0.00280098
101641:-0.00927753
101693:-0.0104892
101697:-0.0195058
101837:0.00124639
101841:0.0271935
101843:5.82411e-05
101981:0.00938258
102037:-0.0149407
102245:0.000133486
102247:-0.000254948
102537:-0.010926
102557:-0.0391266
102559:-0.00253315
102569:-0.03209
102571:-0.00340696
102597:0.0115349
102761:-0.023897
102829:0.0111742
102831:0.00214873
102849:0.0291531
102865:-0.0288545
102867:0.00266245
102921:-0.00965079
102923:0.00137299
102977:0.00758871
103101:0.0290143
103103:0.002262
103109:-0.0134521
103111:0.000742087
103297:-0.0107916
103299:-0.000361128
103333:-0.00432631
103345:-0.0352337
103505:-0.00905154
103507:0.000793542
103613:-0.0124113
103685:-0.00239853
103687:0.000541532
103789:0.018927
103791:0.00715907
103805:-0.0199802
103833:-0.0255133
103835:-0.0012626
103849:-0.0576879
103851:0.000537878
103981:0.00473745
103983:0.00247546
104157:-0.0294224
104159:-0.00133334
104333:0.016718
104335:0.00151206
104369:0.0480455
104425:-0.000481882
104453:-0.0323041
104455:-0.00286305
104509:0.0386035
104681:0.0248918
104713:0.00357581
104725:0.00110852
104941:-0.0322902
104943:-0.0022574
105425:0.000999304
105427:0.0015037
105449:0.00444382
105451:0.00177239
105453:-0.0107916
105455:-0.000361128
105853:-0.0198466
106037:-0.0120728
106039:0.0015722
106245:-0.0142869
106247:0.00221651
106337:-0.00316674
106365:-0.0270685
106461:0.0642675
106463:0.00117715
106509:0.0217746
106817:0.0314408
106819:0.00100906
107009:-0.0154207
107011:-0.00150173
107265:-0.00665184
107305:0.00130421
107533:0.00222014
107535:0.00291156
107553:0.0200185
107555:0.00809289
107997:-0.0268667
107999:0.00133828
108005:-0.0329995
108007:-0.00228048
108025:0.0069077
108037:-0.0138105
108039:-0.000428393
108081:0.0145323
108083:-0.000231741
108185:-0.00513093
108187:0.00236364
108189:-0.0172707
108191:0.00228847
108293:-0.0145429
108295:0.00157801
108297:-0.0190698
108529:-0.0240279
108713:-0.0187933
108725:-0.0176232
108727:-0.00107681
108729:0.0266072
108781:-0.00870947
108789:-0.0199802
108861:0.0175537
108889:0.0208581
108893:0.0185012
109025:0.0244959
109061:0.00814471
109069:-0.0233242
109071:0.00120007
109093:-0.0107083
109101:-0.049572
109285:-0.00665184
109377:-0.0199309
109433:-0.0105418
109435:0.00788114
109689:-0.0151484
109981:-0.0228568
110413:-0.0238219
110545:-0.0181469
110547:-0.00100231
110581:-0.0473169
110583:-0.00206862
110809:-0.0205852
110813:0.00570916
110885:0.0019996
110887:0.00129093
110889:-0.0246358
110891:-0.00174639
110913:-0.0238696
110945:-0.0550321
111081:-0.0133798
111233:0.0152964
111235:0.00225687
111353:-0.0230666
111477:-0.0270808
111479:0.000642708
111493:-0.0454959
111505:-0.0228176
111533:-0.0283999
111717:0.0187437
111719:0.000702053
111973:-0.00432631
112061:0.0150166
112063:0.00285609
112077:-0.0324221
112079:-0.00260455
112113:0.0216574
112121:-0.0304942
112469:-0.0038557
112471:-0.0012099
112557:0.0192195
112559:0.001206
112853:0.00377545
112861:-0.0228228
113029:-0.00774973
113189:-0.0114394
113321:-0.0134866
113325:0.00867351
113445:0.0211572
113447:0.00228001
113581:0.00702907
113585:0.0132274
113587:0.00259462
113613:-0.0359834
113615:0.00215457
113765:-0.0277021
113801:0.0262678
113803:0.00151206
113981:0.00262946
113983:0.00190005
114013:-0.00716348
114015:0.00199499
114229:0.00113495
114245:0.0154308
114257:-0.020624
114577:-0.0362674
114579:0.00104505
114585:-0.00404709
114587:0.0105987
114609:-0.0166426
114641:-0.0187755
114643:-0.000361128
114713:0.00802987
114981:-0.0415908
114983:-0.00122582
115473:0.00807198
115517:0.0193319
115541:-0.0244953
115565:-0.0597102
115567:-0.00168404
115613:0.0223743
115769:-0.0355144
115865:-0.0149519
115867:-0.000679183
116033:0.0361498
116041:-0.0347534
116077:-0.03349
116079:-0.000420081
116205:0.011646
116281:0.023257
116533:-0.0081149
116581:-0.0300506
116605:0.020478
116661:-0.0061439
116663:0.00230256
116937:-0.0113659
117173:-0.0228443
117193:0.0200334
117309:-0.0124074
117333:0.00561469
117493:0.0165357
117495:0.000227819
117541:-0.00053652
117543:0.00155512
117585:-0.019851
117601:0.0103935
117603:0.00743303
117617:-0.0270397
117619:0.000827876
117645:-0.00877771
117701:0.0206141
117709:-0.00449924
117713:0.0021203
117715:0.00865759
117737:-0.00460705
117993:0.0279521
117995:0.0015722
118137:-0.0462459
118181:0.00589097
118183:0.00247546
118185:-0.00745173
118187:0.00300278
118337:0.00671809
118541:-0.0290191
118543:-0.00197613
118545:-0.0119608
118547:0.00186371
118621:-0.00849122
118717:0.0209711
118765:-0.0206
118777:-0.0133409
118813:0.0215516
118869:-0.0438135
118973:0.0289477
119009:0.00796924
119011:0.00290631
119173:-0.0183376
119273:-0.0184364
119337:0.00267063
119339:0.00162787
119397:-0.0105647
119399:-0.00247593
119457:-0.0229833
119741:0.0123756
119757:0.0225169
119813:0.0181533
119815:0.00190005
119969:0.00814471
120001:0.0126859
120003:0.00259462
120029:-0.0635329
120031:-0.00160782
120161:0.0411878
120163:0.0034299
120289:0.00121196
120297:-0.0214125
120333:-0.00094748
120335:-0.00133334
120429:-0.0222206
120497:-0.0209783
120633:-0.016894
120697:-0.00876954
120699:-0.00124166
121037:0.0102408
121039:0.00199499
121121:-0.0301032
121123:-0.000329901
121289:-0.00979803
121341:-0.0248447
121465:-0.0230466
121467:-0.00160782
121661:-0.0212856
121663:0.000722818
121701:-0.0285599
122077:-0.0121361
122093:-0.0103336
122095:-0.0012626
122153:-0.049983
122155:-0.00168837
122193:-0.014803
122329:-0.0451053
122331:-0.00257858
122493:0.016714
122557:0.0221556
122693:-0.0253665
122773:-0.0283519
122777:-0.0372058
122779:-0.00118222
123073:-0.034924
123077:-0.0102149
123079:-0.000770208
123197:-0.00683147
123737:0.0196578
123773:-0.0405619
123775:-0.00260455
123789:0.027396
123901:-0.00601057
124013:0.0193974
124015:0.00820847
124133:0.0206568
124277:-0.0323385
124279:-0.00360553
124293:0.0213555
124295:0.000984981
124393:0.0319859
124537:-0.000974731
124539:0.00290631
124553:-0.0218379
124649:0.00607807
124669:-0.0174562
124671:0.00176041
124881:0.0228686
125069:-0.00997686
125105:0.00231981
125107:0.00849835
125321:-0.0231241
125425:-0.0274176
125433:-0.0135069
125465:0.0121048
125529:0.0690645
125593:-0.0124176
125625:-0.0510412
125627:-0.00151178
125749:0.0210109
125751:0.0013677
125813:-0.0334396
125815:-0.0012626
125821:0.0316822
125823:0.00228323
125853:0.00693355
125901:-0.000859508
125903:0.0024932
126117:-0.0123476
126133:-0.0123476
126353:0.0148698
126445:0.0222327
126447:0.000719731
126525:-0.00245175
127241:0.00702989
127345:-0.0125293
127517:-0.044904
127519:-0.00257858
127593:-0.0097977
127713:-0.0176063
127715:0.000722818
128157:-0.0205214
128269:-0.0245343
128271:-0.000708497
128417:0.0195559
128577:0.00385347
128701:-0.0480313
128703:0.000794498
128725:0.0268205
128753:-0.0577984
128755:-0.00323831
128957:-0.0138878
128959:0.000738304
129053:-0.0116836
129055:-0.00260455
129085:-0.0177678
129087:0.000973942
129117:-0.0248314
129161:0.0139122
129181:-0.0165018
129183:-0.00134847
129257:-0.0329049
129259:-0.00222017
129293:-0.00496457
129295:0.00303033
129545:0.0186937
129547:0.00277396
129621:-0.0184364
129909:-0.042603
129911:-0.00115558
130037:-0.00349887
130039:-0.000418367
130045:-0.00258268
130153:-0.00151775
130155:-0.00133334
130253:0.00435653
130573:0.0175171
130575:0.008195
130621:-0.0126281
130623:0.000640914
130737:0.00419888
130785:0.00698899
130787:0.000946076
130805:-0.0340084
130809:-0.0209452
130865:0.0230057
130867:0.00268114
130897:-0.00634029
131101:-0.0160891
131103:0.00102115
131125:0.0199835
131127:0.00809289
131221:0.0085818
131345:0.00661553
131347:0.00357911
131601:-0.0459647
131665:0.0114475
131845:-0.0321642
131857:-0.00955013
131873:0.00451211
131981:-0.00341559
132177:0.018117
132225:-0.034087
132227:-0.00254575
132517:-0.0274999
132519:-0.00276167
132545:-0.0025196
132547:0.00104505
132753:-0.0242071
132755:-0.00397245
132817:0.0291348
132819:0.00113487
132853:0.0152117
132855:0.00113397
132865:0.0311824
133221:-0.0314225
133223:-0.00347516
133309:0.000878769
133311:0.00221651
133353:-0.0166866
133609:-0.0201383
133611:0.00655978
133661:-0.0321642
133669:0.036117
133793:-0.00573872
133797:-0.00385549
133799:0.00100906
133837:-0.0177206
133839:-0.000739327
134373:-0.0193311
134741:0.00512579
134743:-0.00106674
134817:-0.0507094
134819:-0.00304125
134865:-0.015473
134965:-0.0222679
135141:-0.0129674
135149:-0.029487
135151:0.00202948
135157:-0.0262347
135169:-0.0191138
135171:-0.0012626
135269:0.0283628
135345:0.0212823
135417:-0.000860716
135419:0.00322191
135505:-0.0371854
135507:-0.000933183
135693:-0.0483686
135725:-0.0161867
135727:0.000323478
135749:-0.0372052
135751:-0.0014874
135973:-0.0407305
136089:0.00817054
136091:0.00214227
136221:-0.0198245
136253:0.000956776
136255:-0.00197613
136401:-0.0225688
136403:0.00315374
136409:-0.0405183
136411:0.000253516
136561:-0.000342958
136617:-0.0297756
136619:0.000227819
136661:-0.0139289
136693:0.00847829
136695:0.00800114
136837:-0.00664915
136873:-0.00766931
136875:0.00284046
136897:-0.0385832
136899:-0.000650252
136901:-0.0296717
137029:-0.00380284
137031:-0.000106608
137081:0.0190044
137141:0.0301743
137173:-0.00939597
137237:0.0390284
137277:0.022094
137309:-0.0699804
137311:-0.00283584
137393:-0.00890481
137395:0.000779994
137553:0.0184791
137669:-0.0188171
137671:0.000482374
137733:-0.0475548
137797:0.0173787
137799:0.00218497
137801:0.00800782
137803:0.000511556
138281:0.026409
138283:0.00194999
138321:0.0144001
138323:0.00113397
138417:-0.000115053
138521:-0.0132281
138609:-0.000115053
138669:-0.0196166
139049:-0.00713457
139117:0.00671168
139205:-0.00453307
139237:-0.0213225
139239:-2.15151e-05
139253:-0.0159009
139255:0.00331852
139321:0.0317329
139323:0.00277278
139409:-0.00683147
139485:0.0097936
139487:0.00209529
139709:0.0210294
139711:0.00808658
139753:-0.00167705
139755:0.000722818
139921:0.000491025
139925:-0.0251181
139977:0.033178
139979:0.00821535
140045:-0.0153935
140047:-0.000420081
140073:0.0203082
140075:0.00809289
140097:-0.0498704
140099:0.00208909
140185:-6.17756e-05
140337:0.0176199
140339:0.00259462
140489:0.0102293
140661:0.0104624
140663:0.00133758
140713:0.0295278
140765:0.0238564
140805:-0.0235265
141041:-0.0116744
141049:-0.0108545
141053:-0.0322004
141105:0.0150254
141145:-0.00164335
141309:-0.00112639
141337:0.0184248
141339:0.00805478
141357:-0.0225851
141509:0.0315413
141769:-0.0269064
141809:0.00321879
141811:0.00291156
141841:0.0369702
141861:-0.0129644
141953:-0.0271411
141955:0.000937622
142177:-0.0190436
142193:-0.0251968
142417:-0.00636742
142545:-0.0681349
142547:-0.00298865
142605:-0.00683147
142881:-0.00516621
142883:-0.000497857
142905:0.0175642
142907:0.00271535
143045:-0.0231064
143047:0.000227819
143085:-0.0109726
143087:0.0111631
143101:-0.00221038
143103:0.00150749
143301:-0.0272581
143345:0.0217882
143621:0.0278899
143623:0.0015722
143689:0.0173703
143757:-0.00670586
143937:0.0167672
143939:0.00156902
144109:0.0138661
144111:0.00284769
144193:-0.0278779
144233:0.0342948
144235:0.000946076
144257:-0.0254195
144369:-0.00319206
144371:0.000779994
144401:0.0169048
144403:0.00332128
144477:-0.0219425
144479:-0.00097919
144485:-0.00830529
144487:0.00304233
144545:-0.0231405
144705:-0.00267345
144829:0.00580796
144831:0.00221651
144905:0.00265067
144917:0.00998829
145405:0.0227078
145407:0.00833063
145509:-0.0234267
145511:-0.00207298
145521:-0.00803056
145629:-0.00870686
145713:0.0193171
145729:-0.00442359
145733:-0.00282006
145741:-0.00791848
145817:-0.00365564
145819:0.000779994
146049:-0.0118735
146051:0.00345673
146361:-0.0381144
146477:-0.0277876
146513:-0.0194862
146515:-0.00140442
146573:-0.0190313
146681:0.0206918
146837:-0.0302284
147205:-0.0286581
147273:0.0142193
147275:0.00275958
147445:-0.0309702
147447:-0.000643021
147529:0.0037662
147713:0.00680435
147801:0.00579514
147803:-0.00081562
147873:-0.0159924
147875:-0.000954658
148017:0.013629
148019:0.00146476
148365:-0.0157588
148405:-0.0205401
148573:-0.042283
148605:-0.0270176
148713:-0.0316878
148715:0.00180365
148717:-0.00316674
148925:-0.0152214
148933:0.00113495
149441:-0.00828013
149573:0.00325992
149785:-0.00300479
149787:-0.00168404
149809:-0.0674699
150057:-0.0025438
150059:0.00265232
150341:0.00552677
150343:0.0113316
150525:-0.0279289
150925:-0.0384936
150927:-0.00133334
151005:0.0132084
151007:0.000469855
151065:-0.0262596
151141:0.00225659
151265:0.00957302
151285:0.00805466
151287:0.00230093
151525:-0.0455889
151527:-0.00285655
151537:-0.0149673
151549:-0.0309805
151749:-0.0273279
151751:-0.0024166
151769:0.0214004
152001:0.0173564
152101:-0.0147061
152145:0.0063563
152257:0.0195559
152621:0.00831497
152693:-0.021739
152717:-0.00038112
152719:0.000908688
152877:-0.0277819
152969:0.00531364
153513:-0.00637828
153515:0.000984981
153593:-0.00320808
153685:0.041551
153757:0.0365031
153759:0.00190005
153789:-0.00900955
153791:-0.000267797
154013:-0.00308586
154017:-0.0116203
154057:-0.0269811
154085:-0.00933177
154293:0.0193396
154553:-0.00754847
154589:0.0334614
154591:0.00214062
154637:0.00492674
154641:-0.0214609
154643:-0.00231321
154681:-0.0258391
155121:0.020129
155123:0.00809289
155173:-0.00471452
155175:0.00265232
155313:-0.0250555
155373:-0.0532171
155375:0.00195141
155525:-0.0184287
155553:0.00272049
155555:0.00233076
155725:0.00464432
155753:-0.0178116
155801:-0.0425608
155803:-0.00160782
155833:-0.0240811
155929:-0.0261305
155931:-0.000904709
155969:-0.00897119
156037:-0.00949752
156209:-0.0183468
156211:0.000742087
156257:-0.0244307
156461:-0.0164873
156485:0.0172336
156487:0.00283455
156609:-0.0838775
156611:-0.00501855
156709:-0.00224992
156711:0.00086444
156781:-0.0187554
156783:0.00132409
156929:0.00137547
157253:-0.0328363
157397:0.0133297
157399:0.00221651
157441:0.0316822
157443:0.00228323
157529:-0.0256824
157953:-0.0039656
157955:0.00285816
158033:-0.00164367
158209:-0.0160382
158273:0.00687761
158275:0.00376625
158297:0.00657289
158299:-0.000267797
158357:0.0148973
158359:0.00146476
158413:0.010036
158415:0.00330652
158477:-0.00555605
158479:-0.000361128
158509:0.0102512
158657:0.0114156
158773:0.0121455
158775:0.000984981
158777:0.0233805
158785:-0.00747723
158787:-0.00106702
158837:-0.0253824
158965:-0.0235623
158985:-0.022634
158987:-0.00106674
159013:0.0105528
159201:-0.025024
159345:-0.0192061
159425:-0.023472
159481:0.0239186
159521:-0.029292
159523:-0.00159945
159593:0.00849922
159595:0.00199499
159653:-0.0172715
160281:-0.0185738
160325:-0.00611136
160327:-0.000857579
160381:-0.0114839
160383:0.0012709
160453:0.0440861
160455:0.00240695
160517:0.0121508
160519:0.00191085
160561:-0.0226951
160563:0.00191889
160669:-0.0180266
160671:-0.000267797
160705:-0.0276548
160707:-0.000975698
160873:-0.029417
160875:-0.00160782
160981:-0.0499581
161037:-0.0112237
161169:0.0311656
161245:0.000640182
161247:0.00218497
161453:0.0391338
161497:-0.0234964
161499:0.00221651
161669:-0.0092301
161841:-0.0260029
162085:0.0288069
162177:-0.00870947
162197:0.0311923
162199:0.00246666
162221:-0.0245483
162223:-0.000654714
162285:0.00395706
162287:0.00119
162869:0.0185589
163133:-0.0142436
163157:-0.0262008
163159:1.49826e-05
163245:-0.029247
163249:0.00960672
163277:0.0328181
163279:0.00821535
163353:0.00876164
163437:-0.00282067
163445:0.0165663
163629:-0.0254533
163769:-0.0185819
163771:-0.000708497
164057:-0.0263142
164113:-0.0277283
164225:-0.0170192
164229:-0.0170503
164289:-0.0155042
164349:0.0334702
164351:0.00308378
164417:-0.0455889
164419:-0.00285655
164481:-0.0273365
164769:-0.0218138
165017:-0.0341876
165019:-0.000616487
165045:-0.0555128
165047:-0.00168404
165261:0.0055771
165263:-0.00140442
165437:-0.0182383
165439:-0.00173713
165537:-0.00685356
165649:-0.0119029
165661:0.00707348
165817:0.00636123
165819:-0.000593357
165977:-0.00273316
166353:0.0417081
166355:0.00372711
166465:0.0104473
166481:-0.0471569
166697:-0.0324107
166699:-0.0012722
166721:-0.013454
166733:-0.000248916
166833:0.0172992
166835:0.00271535
166873:-0.0457628
166885:0.0175046
166887:0.00275132
166893:-0.00792945
166961:0.00388355
166965:-0.0144513
167121:-0.0745806
167123:-0.0020258
167245:0.000604242
167341:0.0148566
167437:0.000422499
167439:0.00269314
167605:-0.0501895
167607:-0.00254575
167733:-0.0241977
167937:0.0117837
168157:-0.0270265
168305:0.00192128
168313:-0.0167514
168361:-0.00683147
168437:-0.00519821
168549:-0.0326224
168551:-0.000933183
168553:-0.0286383
168555:-0.00415206
168813:-0.0131118
168821:-0.0220949
169033:-0.0214411
169035:0.000722818
169041:-0.00358513
169309:-0.00445939
169349:0.00918197
169377:0.0120471
169669:-0.0105671
169671:-0.00178213
169733:-0.0248928
169765:0.0127768
169769:0.0283561
169897:0.000245152
170065:0.00557658
170067:0.001298
170157:-0.0463502
170159:-0.00330347
170169:-0.012055
170417:0.0198488
170749:-0.0420808
170865:0.0148996
170867:0.00197377
170997:-0.0019674
170999:0.000205899
171021:-0.00188599
171023:0.000330963
171869:-0.0341287
171937:-0.0189067
172017:0.0199846
172019:0.00283644
172165:-0.0150331
172173:-0.0130311
172175:0.0015722
172561:-0.054006
172563:-0.00273366
172581:-0.0272197
172705:-0.00329593
172813:-0.0176046
172815:-0.000739994
173089:0.00908569
173145:0.00369597
173147:-0.00016101
173189:-0.0144524
173229:-0.00315143
173231:0.0140019
173465:-0.0245204
173477:-0.0193501
173479:-0.000258253
173713:0.000963114
173715:0.00214227
174185:0.0293342
174261:-0.0103476
174297:0.0316607
174299:0.00178919
174597:0.0174357
174617:-0.0223791
174681:-0.0011739
174683:-0.000739327
174757:-0.0339265
174759:-0.00364108
174841:-7.96287e-05
174843:0.00129093
175101:0.0201414
175103:0.0116448
175261:0.00537193
175273:-0.0460903
175275:-0.00227405
175317:-0.0177206
175319:-0.000739327
175393:0.0103521
175505:0.0209711
175513:-0.0241173
175565:0.0530211
175567:0.00195185
175577:-0.0305067
175579:0.000642708
175649:0.0132833
175693:0.0203958
175695:0.00809289
175745:0.0314276
175873:0.00121196
175921:0.0191878
175985:0.00960672
176009:0.0193171
176113:0.0299165
176153:0.00163719
176253:0.0152501
176561:0.0189373
176625:0.0212823
176645:-0.0291534
176653:0.0101295
176681:-0.0235819
176683:-0.00150921
176689:0.0274165
176985:0.000988413
177061:-0.0621196
177101:-0.00421062
177313:-0.0219298
177315:-0.00269236
177337:0.0232912
177425:0.000418263
177481:0.0188651
177493:0.00562725
177495:0.0015722
177581:0.0169804
177605:-0.0389377
177677:-0.0220156
177705:-0.0276683
177813:-0.015473
177845:0.0188725
177881:0.00851022
177883:0.001206
177949:-0.0247005
177973:0.02867
177989:0.00602429
178013:-0.0062121
178015:-0.00084227
178037:0.0165027
178039:0.0025635
178137:-0.0435345
178241:-0.0131844
178277:-0.0297365
178297:-0.0282857
178437:0.000588797
178477:-0.0134309
178509:-0.0460727
178749:-0.0720637
178961:0.000868698
178963:0.00200238
179009:-0.0299079
179085:0.0167187
179257:-0.0271935
179259:-0.000708497
179469:0.0272021
179713:-0.0270976
179715:-0.00254575
179837:-0.0133472
179839:0.0015722
179885:-0.0296633
179997:0.00603161
179999:0.00105477
180041:-0.0250244
180133:0.0275241
180229:-0.01934
180231:0.00147774
180341:-0.00537881
180489:-0.0373237
180597:0.00831838
180721:0.0064603
180729:-0.0197532
180731:0.000917772
180785:0.00947853
181049:-0.0203937
181217:-0.0146992
181219:0.00251076
181345:-0.0325363
181347:-0.00243996
181461:0.0204922
181533:-0.00357784
181537:0.0208797
181539:-0.00269477
181693:-0.0032465
181695:0.00157801
181705:0.0129844
181707:0.000794734
181777:-0.044888
181809:-0.0322688
181811:0.00137858
182141:-0.0152769
182289:-0.0255716
182291:-0.000510725
182533:-0.0250787
182613:-0.0101753
182615:0.00448856
182749:0.0170425
182751:0.000617796
182853:0.0275337
183021:-0.0082851
183023:-0.00210392
183337:-0.0124176
183453:-0.018632
183455:-0.00106674
183525:0.0248263
183527:0.000984981
183685:0.00186287
183687:0.00620696
183689:-0.0421328
183885:-0.0307054
183887:-0.00231321
183969:-0.0164289
184001:0.000260402
184241:-0.027141
184337:-0.0195853
184339:-0.00269236
184969:-0.0128069
184971:0.0064818
185045:-0.0120433
185047:0.00177767
185057:0.018062
185105:0.0566347
185107:0.000808468
185345:-0.0295307
185393:0.00285479
185413:0.024385
185521:-0.0318963
185709:0.00930067
185729:-0.0296525
185857:0.0180658
185859:0.00257169
185913:0.00149246
185915:6.9832e-05
186129:0.0310086
186131:0.0018278
186257:0.0355623
186405:-0.0148344
186407:0.00421085
186413:-0.0042483
186415:0.00112967
186553:0.0170358
186617:-0.0170532
186619:-0.000739327
186757:0.00920516
186821:-0.0268301
186929:-0.016683
186931:0.00199499
187073:0.0167731
187245:0.0229791
187553:-0.0233549
187649:0.0369074
187651:0.00966461
187669:-0.0373795
187671:-0.00174639
187693:-0.0241516
187717:0.025681
187719:0.00710732
188037:0.0207089
188101:-0.00266843
188441:-0.0178584
188443:0.000838859
188673:-0.0168021
188785:-0.0115108
188977:0.00483874
189065:0.0192287
189369:-0.0328492
189371:-0.00112021
189389:-0.0566978
189457:-0.0198886
189459:0.000193499
189573:0.00782258
189575:0.00330652
189637:-0.0544883
189725:0.0246944
189805:-0.0230889
189965:0.0192165
190021:-0.0146544
190297:0.0178601
190299:0.00283455
190493:-0.0376079
190537:-0.025847
190549:-0.027072
190713:-0.00856585
190715:0.00191889
190761:-0.0232163
190837:-0.0293584
190845:0.0224665
190857:0.00402538
190929:-0.0564131
190931:-0.00298865
190941:0.00357963
190943:0.00151126
190993:0.00691484
191017:0.029391
191069:-0.0226984
191093:-0.000620389
191221:-0.0107927
191649:0.0192824
191725:0.00289343
191925:-0.0207915
191927:-0.000247107
192209:0.0104473
192233:-0.00887847
192235:0.000801756
192241:-0.0209452
192285:0.0365381
192333:0.0186099
192393:-0.00417955
192395:0.00303033
192509:-0.00759701
192511:0.000984981
192525:0.0126963
192649:-0.0152769
192753:0.0317838
192755:0.00190005
192801:0.00127192
192817:0.000328502
192819:-0.000395188
192981:-0.0190436
193345:-0.0340834
193347:0.00128366
193541:-0.0268978
193965:-0.0299853
194065:0.0186215
194067:0.00257169
194089:-0.019081
194389:-0.035855
194391:-0.000218012
194469:-0.012323
194497:0.025635
194509:-0.0224184
194511:-0.00403373
194709:-0.0273361
194897:0.0407574
194937:0.00859453
195029:-0.033235
195031:-0.00140868
195037:-0.0219266
195117:-0.0234353
195181:0.0164319
195333:0.020545
195335:0.00812173
195453:-0.0269218
195455:-0.000679183
195565:0.0035269
195567:0.00162787
195825:0.0147024
195869:-0.036041
195933:-0.0184769
196029:-0.0139046
196031:0.000976319
196217:0.00961067
196373:0.00973338
196375:-0.000711788
196513:0.0024391
196515:0.00195185
196521:0.00164474
196569:-0.00858129
196685:-0.0209942
196777:-0.0321155
196779:-0.00188178
196885:-0.0040091
196981:0.0350539
197257:-0.0588618
197293:-0.0189488
197295:-0.00222017
197353:-0.0227145
197449:-0.0267236
197451:-0.000659214
197485:-0.00191379
197501:-0.0453843
197503:-0.00065478
197613:0.0163737
197645:-0.0190449
197689:0.0273832
197691:0.00149595
197785:-0.0109805
197801:-0.00616116
197849:-0.0217241
197851:8.26751e-05
197897:-0.0482755
197997:-0.0283171
198109:0.0169211
198185:0.00483611
198187:0.000510432
198189:0.0304814
198373:0.00643208
198375:-0.00173459
198421:0.0193171
198569:-0.0454959
198661:0.00322926
198663:0.000261053
198665:-0.0234236
198841:-0.0509033
198843:-0.0012626
198909:-0.0207217
198911:-0.00140442
199045:-0.0143636
199047:-0.0010478
199317:0.0307805
199445:0.0194883
199447:0.00998107
199457:-0.028898
199469:-0.00699965
199493:-0.0185186
199589:0.000163569
199591:0.00159952
200165:0.0226462
200369:-0.00207923
200445:-0.00517773
200447:-0.000267797
200649:0.0205224
200693:0.0205549
200695:0.00218778
200885:-0.00887243
200905:-0.0198344
200957:-0.00139282
201065:0.00960672
201417:0.00124342
201941:0.0185573
201945:-0.00839261
202005:0.0287559
202097:0.0203082
202099:0.00809289
202209:0.0130688
202211:0.00776266
202213:-0.0112495
202341:-0.0163982
202373:-0.0273615
202589:0.000690544
202669:0.0281876
202905:-0.00179331
202907:0.00365067
203149:-0.0222244
203151:-0.00081562
203281:-0.0113866
203313:-0.0319261
203315:-0.000879192
203489:0.00318561
203491:0.0120939
203529:0.00715511
203531:0.00107643
203553:-0.0205057
203617:-0.0641654
203619:-0.00189412
203801:0.000390582
203873:-0.0254582
203909:0.00130874
203911:0.00327741
203981:-0.00771759
203983:0.001298
204169:-0.0137782
204171:-0.000679183
204273:-0.0385378
204453:-0.0169208
204717:-0.0040906
204749:-0.00450178
204913:-0.0359365
204915:-0.0018622
205377:-0.00155625
205505:0.00188355
205773:-0.030124
205775:-0.00107681
205885:0.0255992
205909:-0.0208189
205911:-0.00159945
205925:-0.0479247
205961:-0.0152769
205969:-0.00464729
206045:-0.0469116
206047:-0.00214299
206165:-0.0394823
206261:-0.0363631
206263:-0.000396363
206273:0.00390319
206405:-0.0155308
206409:0.0032987
206453:-0.0110024
206461:0.00694903
206463:0.00459511
206537:-0.0115794
206539:-0.00134847
206697:0.0186307
206699:0.00219642
206741:-0.0144231
206749:-0.00106652
206751:0.000870424
206765:0.0269489
206857:0.00948381
206865:-0.0491426
206867:-0.00208959
206901:-0.0260639
207145:0.0364894
207147:0.0015722
207177:-0.0264283
207465:-0.00349994
207645:-0.0124094
207647:0.000946076
207673:-0.00244826
207675:0.0022722
208037:0.0103178
208053:0.0130279
208055:0.000794734
208121:-0.0301264
208261:-0.0487815
208263:-0.00364108
208285:-0.00118016
208569:-0.0186427
208617:-0.0349004
208619:0.000210735
208677:0.00230665
208679:-0.00016101
208717:0.0186668
208719:0.0113316
208753:1.52551e-05
208755:0.00137858
209117:-0.0296172
209119:-0.00140442
209161:-0.0140414
209163:-0.000177789
209169:0.0224697
209389:-0.0317496
209561:0.00455057
209563:0.00150524
209785:-0.0141473
209813:0.0251319
209881:-0.0165483
209883:0.00765964
209949:-0.031163
209951:0.00196414
209977:0.0270973
209981:-0.0482755
210081:-0.00153033
210265:-0.0319669
210267:-0.000187099
210285:-0.00583111
210287:0.000608212
210465:0.0214339
210467:0.0079742
210505:0.00283446
210507:0.00149953
210585:-0.0354701
210587:-0.00182909
210609:-0.0194038
210737:0.0475065
211037:0.0127674
211065:0.0203293
211081:0.00271884
211265:-0.017365
211297:0.0130142
211299:0.0013677
211309:-0.0129241
211377:-0.0315336
211379:-0.000218012
211529:-0.0507276
211531:-0.00208959
211549:-0.0328197
211645:-0.00603831
211647:0.0054233
211657:0.0225939
211659:0.000617796
211801:-0.044888
211833:-0.0268498
211961:-0.00517239
212061:0.0205423
212063:0.00807963
212129:0.0548293
212173:-0.0390558
212175:-0.00197613
212221:-0.0164173
212321:-0.0079845
212323:0.00251076
212505:-0.0157076
212581:-0.00622975
212583:-0.00217334
212665:-0.0256654
212865:-0.00273316
212981:-0.0104782
212983:0.00784421
213125:-0.0238161
213127:-0.0013915
213177:-0.0445691
213179:-0.00081562
213221:-0.0109875
213409:0.00649133
213411:0.0073939
213453:0.0353148
213537:0.0037662
213749:0.027412
213785:0.00653636
213925:-0.0253973
214029:0.00604455
214229:-0.00683504
214245:0.0177335
214247:0.00695741
214261:-0.0112235
214263:-0.000361128
214265:0.0239186
214277:-0.00909856
214279:0.000742087
214329:-0.00700025
214331:0.00275574
214345:-0.0281538
214417:-0.0190081
214609:-0.0109851
215405:-0.0259879
216033:-0.0296543
216081:0.0337999
216083:0.00242941
216213:0.0172293
216229:-0.0376968
216349:0.00451211
216409:-0.0300047
216465:-0.0222206
216669:-0.0109256
216701:0.0243042
216725:0.0200983
216757:-0.00386944
216949:-0.00183452
216951:0.0019973
217141:0.00427677
217143:0.000722818
217345:-0.0235666
217633:-0.0284725
217635:-0.000275856
217737:-0.0294075
217845:-0.0145582
217847:-0.00287501
217885:0.0152412
217925:-0.0273009
217927:-0.00168404
218045:-0.0575323
218047:-0.00112021
218309:-0.0194309
218393:0.00994208
218565:-0.0233131
218657:-0.0177687
218693:0.0132859
218695:0.000729412
218749:0.00843883
218751:-0.000267797
218793:0.00686624
218853:-0.0230024
219061:-0.0215848
219069:0.0254991
219071:0.00213459
219109:-0.00759898
219161:-0.0109805
219165:0.00615223
219167:0.0026527
219201:-0.0368231
219203:-0.00201475
219221:0.0245326
219233:-0.0328379
219285:0.0294044
219287:0.00631901
219313:-0.0278779
219341:-0.0328666
219343:-0.000231741
219405:0.0132966
219573:-0.0246004
219575:-0.00159945
219637:0.0152391
220113:-0.0183063
220185:-0.0400829
220225:0.0190044
220353:-0.0240929
220421:0.0089806
220423:0.000417151
220441:0.0109202
220689:0.0445494
220897:0.0339906
221125:-0.00851596
221127:-0.000708497
221169:0.0290689
221171:0.00284724
221225:0.000202026
221227:0.00274872
221281:-0.0171525
221465:-0.0181423
221467:0.00355487
221665:-0.014234
221733:0.0144941
221829:-0.0332215
221845:-0.0212954
221849:0.00268883
221851:0.00291156
221861:0.00759631
221863:0.00643693
221877:2.22323e-06
221879:8.6884e-07
221885:6.9908e-07
221887:8.87525e-07
221893:1.16372e-07
221895:3.54754e-08
221905:-8.44888e-08
221907:1.41249e-06
221909:-0.0277479
221911:-0.000576819
221937:0.000497313
221939:0.000155659
221941:-0.000115041
221943:8.25805e-05
221969:-0.00202033
221971:-0.000966703
221973:-0.00168478
221975:0.0012638
221981:0.00130944
221983:0.000674204
221985:-8.53413e-06
221987:0.000157112
221989:0.00990609
221991:0.00106826
221993:0.00579847
221995:0.000572957
221997:-0.00261323
221999:6.42792e-05
222001:-0.00189105
222005:-0.00255926
222007:0.000462331
222009:0.00694362
222011:0.00211103
222013:0.0046197
222015:0.00213965
222017:0.000323137
222019:0.000130145
222021:0.00392978
222023:0.000301863
222025:0.00499174
222027:0.00114575
222029:0.000479585
222031:0.000471704
222033:-0.00122972
222035:0.00025092
222037:-0.01243
222039:-0.00197613
222041:0.00334944
222043:0.000829541
222045:0.00462044
222047:0.00254427
222049:-0.000573413
222051:-0.000178948
222053:0.000349966
222055:0.000159028
222057:0.000120801
222059:0.000101954
222061:0.00031877
222063:9.0758e-05
222065:0.000328738
222067:0.000255049
222069:4.49516e-05
222071:0.000193196
222073:-0.000396046
222075:0.000168467
222077:0.00810769
222081:0.00267044
222083:0.000107034
222089:0.00117034
222091:0.00033139
222093:0.000909817
222095:0.000208558
222169:-0.00312146
222171:0.000863356
222177:-3.26535e-07
222179:1.6543e-08
222181:-1.34917e-06
222183:8.30379e-08
222185:-6.95137e-07
222187:4.74408e-08
222189:-6.76436e-05
222191:2.65695e-05
222193:-0.000383778
222195:1.87982e-05
222197:-0.000206502
222199:4.69022e-05
222201:4.14022e-05
222203:6.4422e-05
222205:5.02158e-05
222207:5.45671e-05
222209:3.39757e-05
222211:3.98575e-05
222213:7.13868e-05
222215:3.9471e-05
222217:0.000415884
222219:0.000481781
222221:-0.000202714
222223:8.21412e-06
222225:-8.40398e-05
222227:-1.95101e-06
222229:-0.00283959
222231:-0.00128314
222233:-0.00101183
222235:-1.09726e-05
222237:-5.308e-06
222239:5.37762e-05
222241:-0.0011367
222243:-0.000146538
222245:-0.0017524
222247:-0.000183847
222249:0.000472638
222251:9.15098e-05
222253:4.84095e-05
222255:-0.000306478
222257:-0.000269217
222259:-1.35809e-05
222261:-0.00201648
222263:-0.000269723
222265:0.000207903
222267:0.000147998
222269:0.000732079
222271:0.000235892
222273:7.46122e-05
222275:4.85185e-05
222277:9.77404e-05
222279:4.62987e-05
222281:9.91392e-05
222283:4.62406e-05
222285:7.09318e-05
222287:4.97373e-05
222289:7.97468e-05
222291:5.01388e-05
222293:8.02855e-05
222295:5.01218e-05
222297:0.000103023
222299:0.000104995
222301:4.33835e-05
222303:6.98473e-05
222305:1.02914e-05
222307:7.42657e-05
222309:6.80695e-05
222311:9.27092e-05
222313:3.90137e-06
222315:5.55943e-05
222317:-1.25114e-05
222319:7.02318e-05
222321:2.83544e-05
222323:8.97561e-05
222325:0.00012795
222327:0.000135817
222329:-0.00019557
222331:0.000241449
222333:-0.000175531
222335:0.000154754
222337:0.000203618
222339:5.08628e-05
222341:5.48157e-05
222343:0.000135709
222345:0.000139944
222347:0.000156353
222349:4.69009e-05
222351:9.05978e-05
222353:-9.04064e-06
222355:0.000111947
222357:7.80958e-05
222359:5.11932e-05
222361:8.82851e-05
222363:4.24631e-05
222365:0.000108794
222367:5.45419e-05
222369:9.67061e-05
222371:4.32375e-05
222373:4.18866e-05
222375:4.33244e-05
222377:4.97353e-05
222379:6.51866e-05
222381:3.0223e-05
222383:4.50536e-05
222385:1.72358e-05
222387:4.80451e-05
222389:8.1298e-05
222391:6.72874e-05
222393:0.000158176
222395:0.000123264
222397:5.56448e-05
222399:5.01094e-05
222401:-4.14706e-05
222403:0.00020725
222405:0.000100051
222407:7.94863e-05
222409:3.06857e-05
222411:5.22253e-05
222413:4.60661e-06
222415:1.04784e-05
222417:5.32423e-06
222419:8.93071e-06
222421:5.26344e-05
222423:4.41388e-05
222425:5.6109e-06
222427:5.43991e-05
222429:-0.000330603
222431:3.8601e-05
222433:-6.99516e-05
222435:2.24551e-05
222437:-4.90487e-05
222439:2.2946e-05
222441:-6.75856e-05
222443:2.28769e-05
222445:0.000115687
222447:3.07681e-05
222449:-3.16141e-05
222451:6.56363e-05
222453:0.000210318
222455:1.45968e-05
222457:2.67845e-06
222459:5.18519e-07
222461:2.72595e-06
222463:5.4335e-07
222465:0.000872877
222467:0.000213309
222469:0.000534361
222471:0.000219127
222473:-1.33199e-05
222475:4.86508e-05
222477:9.46199e-05
222479:2.90149e-05
222481:2.61814e-05
222483:3.69471e-05
222485:0.000142664
222487:0.000117817
222489:-0.000218828
222491:6.32458e-05
222493:4.53924e-05
222495:5.47856e-05
222497:4.40471e-05
222499:4.24091e-05
222501:5.11189e-05
222503:4.34723e-05
222505:3.26315e-05
222507:6.37866e-05
222509:4.77059e-05
222511:4.16495e-05
222513:2.33695e-05
222515:3.723e-05
222517:2.22848e-05
222519:0.000179636
222521:0.00180475
222523:0.000581064
222525:4.58087e-05
222527:0.000205005
222529:3.15441e-05
222531:0.0001019
222533:2.43101e-05
222535:4.9502e-05
222537:-0.000157439
222539:0.000132127
222541:9.07007e-05
222543:0.000138398
222545:-1.2765e-05
222547:5.78527e-05
222549:6.84831e-05
222551:4.15418e-05
222553:-0.000355836
222555:7.82037e-05
222557:0.000190554
222559:6.17205e-05
222561:-0.000699907
222563:0.000125003
222565:-0.000214888
222567:-1.53471e-05
222569:6.8885e-05
222571:1.35281e-05
222573:-9.19628e-05
222575:1.87849e-05
222577:-2.60076e-05
222579:1.63772e-05
222581:-2.74612e-05
222583:2.42615e-05
222585:-0.000284699
222587:-1.79655e-05
222589:0.000156481
222591:5.48874e-05
222593:-4.90542e-06
222595:4.87472e-05
222597:1.69665e-05
222599:4.93289e-05
222601:2.51243e-05
222603:5.03772e-05
222605:4.94353e-05
222607:0.000164849
222609:-1.82832e-06
222611:0.000277521
222613:-7.70172e-05
222615:2.97797e-05
222617:-6.23895e-05
222619:2.29627e-05
222621:-0.00018238
222623:4.90651e-05
222625:0.000179595
222627:0.000103704
222629:-4.68383e-05
222631:6.25239e-05
222633:-3.39299e-05
222635:2.29464e-05
222637:-9.0829e-05
222639:0.000153324
222641:7.08232e-05
222643:2.31835e-05
222645:-2.31325e-05
222647:2.0436e-05
222649:-6.36937e-05
222651:2.2431e-05
222653:-5.96189e-05
222655:2.66545e-05
222657:8.28894e-07
222659:4.92297e-07
222661:1.45054e-05
222663:9.94698e-06
222665:2.32892e-05
222667:8.32619e-06
222669:6.69671e-06
222671:2.59777e-06
222673:6.77675e-06
222675:2.58903e-06
222677:4.75864e-06
222679:2.76948e-06
222681:4.93202e-06
222683:2.76875e-06
222685:5.14069e-08
222687:6.77702e-08
222689:0.000139551
222691:6.59119e-05
222693:-1.03084e-05
222695:8.27653e-05
222697:5.44519e-05
222699:0.000118899
222701:-8.11307e-05
222703:4.38794e-05
222705:5.52766e-06
222707:4.31927e-05
222709:0.000270159
222711:9.53476e-05
222713:-0.000205069
222715:6.39517e-05
222717:0.000483144
222719:0.000221189
222721:0.00060191
222723:0.000139303
222725:6.51762e-05
222727:0.000119178
222729:-8.56437e-06
222731:0.000104677
222733:0.000101681
222735:0.000127156
222737:-6.74553e-05
222739:2.35803e-05
222741:5.41018e-05
222743:5.57342e-05
222745:0.000394477
222747:9.85526e-05
222749:-0.000854709
222751:2.00751e-05
222753:0.000635019
222755:0.000200096
222757:0.000492259
222759:0.000127014
222761:6.44197e-05
222763:4.55025e-05
222765:2.61829e-05
222767:0.000161315
222769:7.20166e-05
222771:4.0551e-05
222773:0.000276516
222775:0.000115012
222777:6.7049e-05
222779:4.1415e-05
222781:-6.4649e-06
222783:5.00908e-05
222785:-2.75889e-06
222787:5.05254e-05
222789:1.66604e-05
222791:3.96688e-05
222793:-3.20489e-05
222795:0.000115375
222797:0.000112042
222799:5.50448e-05
222801:-0.000333406
222803:1.39555e-05
222805:0.000543417
222807:0.000230921
222809:0.000696602
222811:0.000976152
222813:0.000182411
222815:0.000196632
222817:0.000458489
222819:7.68586e-05
222821:0.000120414
222823:0.00013707
222825:-0.000613759
222827:1.88545e-05
222829:-0.000265716
222831:6.65502e-05
222833:0.000125397
222835:0.000102274
222837:0.000112772
222839:7.35067e-05
222841:6.84098e-05
222843:7.77641e-05
222845:7.53392e-05
222847:3.83011e-05
222849:-4.96296e-05
222851:3.51733e-05
222853:-2.41772e-05
222855:3.50093e-05
222857:-9.4002e-05
222859:3.35972e-05
222861:-4.21528e-05
222863:3.16565e-05
222865:-0.000103912
222867:3.20312e-05
222869:-2.55745e-05
222871:2.91043e-05
222873:-2.5453e-05
222875:3.13787e-05
222877:-0.000101918
222879:4.39738e-05
222881:-0.000234512
222883:-2.13755e-05
222885:8.1356e-05
222887:3.61192e-05
222889:9.9337e-05
222891:9.2008e-05
222893:-4.43684e-05
222895:7.51648e-05
222897:-0.000141642
222899:0.000220862
222901:-6.48377e-05
222903:0.000100237
222905:0.000100608
222907:9.17715e-05
222909:-0.000221539
222911:0.000862632
222913:0.000331876
222915:0.00064639
222917:1.52794e-05
222919:0.000104559
222921:-0.000134081
222923:0.000173005
222925:0.000121324
222927:9.1292e-05
222929:0.00025122
222931:0.000127604
222933:7.40773e-05
222935:0.000322592
222937:-0.00195481
222939:2.82664e-05
222941:-0.000563071
222943:-6.69747e-06
222945:-0.000109346
222947:0.000224806
222949:-0.000262092
222951:6.21063e-05
222953:0.000213263
222955:8.73187e-05
222957:-0.000303937
222959:9.31058e-05
222961:-0.000113181
222963:0.000408546
222965:8.51994e-05
222967:0.000283908
222969:-0.000106831
222971:6.90818e-05
222973:-0.000165402
222975:0.000122292
222977:-8.29245e-05
222979:0.000254108
222981:0.000443069
222983:0.000613684
222985:-3.32076e-05
222987:0.000145477
222989:0.000104558
222991:9.50778e-05
222993:0.000209619
222995:6.51109e-05
222997:0.000450209
222999:0.000193885
223001:-0.000403228
223003:0.000121839
223005:7.35692e-05
223007:0.000155234
223009:9.76783e-05
223011:0.000153128
223013:-0.000480008
223015:2.31799e-05
223017:0.000159368
223019:0.000210817
223021:3.02009e-05
223023:4.04142e-05
223025:0.000274711
223027:0.000155207
223029:-0.000238651
223031:0.000132449
223033:3.76458e-05
223035:2.34692e-05
223037:-0.000188705
223039:8.79758e-05
223041:7.45928e-05
223043:0.000107474
223045:-1.66554e-07
223047:8.54376e-05
223049:-4.9704e-05
223051:8.59377e-05
223053:3.61991e-05
223055:0.000226539
223057:0.000231413
223059:8.246e-05
223061:0.00018032
223063:0.000103893
223065:8.49888e-05
223067:6.60577e-05
223069:0.000134228
223071:9.03528e-05
223073:-0.000286307
223075:0.000434182
223077:4.23908e-05
223079:0.000141227
223081:0.000191337
223083:6.11889e-05
223085:-0.0005485
223087:-0.000308799
223089:-0.000570269
223091:-0.000176556
223093:-0.000232616
223095:-0.000163947
223097:0.000132643
223099:0.000156194
223101:8.64874e-05
223103:7.50096e-05
223105:-4.01495e-05
223107:0.00032093
223109:-4.10411e-05
223111:2.96829e-05
223113:-2.11264e-05
223115:8.56028e-05
223117:0.000128235
223119:4.97965e-05
223121:5.39094e-05
223123:6.59468e-05
223125:0.00019151
223127:0.000131084
223129:1.53186e-05
223131:0.000213205
223133:-0.00220361
223135:0.000112352
223137:5.15663e-05
223139:6.23973e-05
223141:-0.000553546
223143:0.000557428
223145:-0.00763498
223147:0.00599846
223149:-8.77427e-06
223151:0.000172842
223153:2.02021e-05
223155:0.000510066
223157:0.000100589
223159:0.00059831
223161:-0.000441477
223163:0.000102773
223165:-0.00104059
223167:-0.00205577
223169:-0.000222874
223171:0.00150839
223173:0.000349996
223175:0.000917275
223177:0.000293243
223179:0.00127004
223181:0.00368763
223183:0.00114642
223185:4.43851e-05
223187:1.88884e-05
223189:1.41152e-06
223191:6.58202e-05
223193:5.16476e-05
223195:4.32668e-05
223197:-8.27635e-05
223199:-9.88636e-07
223201:1.94214e-05
223203:6.17078e-06
223205:8.58367e-05
223207:0.000252646
223209:6.73397e-06
223211:4.17396e-05
223213:1.15149e-05
223215:4.67891e-05
223217:3.99063e-05
223219:7.74821e-05
223221:0.000728091
223223:0.00026369
223225:0.000119602
223227:0.000128963
223229:-0.000720596
223231:1.281e-05
223233:0.000146817
223235:2.80217e-05
223237:9.0431e-05
223239:2.39087e-05
223241:-5.23716e-06
223243:2.15872e-05
223245:1.28422e-05
223247:2.93146e-05
223249:-0.000127734
223251:9.0317e-05
223253:-0.000129756
223255:4.58654e-05
223257:0.000304263
223259:0.000157984
223261:-5.79236e-05
223263:3.81096e-05
223265:-0.000473539
223267:0.000125802
223269:2.40083e-06
223271:3.37829e-05
223273:0.000259468
223275:7.98107e-05
223277:-0.000770557
223279:-0.000829003
223281:-0.000331216
223283:6.06202e-05
223285:-0.000106354
223287:2.99838e-05
223289:-0.000109777
223291:4.56139e-05
223293:-0.000134601
223295:2.58218e-05
223297:4.01128e-05
223299:3.88736e-05
223301:7.89772e-06
223303:3.58663e-05
223305:0.000579713
223307:0.000169966
223309:-0.00114717
223311:0.00105116
223313:-0.000217041
223315:0.000453177
223317:-0.000178509
223319:0.000415066
223321:2.09099e-06
223323:8.33916e-07
223325:2.10608e-06
223327:8.41067e-07
223329:2.15367e-06
223331:8.43933e-07
223333:8.80608e-07
223335:3.48334e-07
223337:2.10274e-06
223339:8.29069e-07
223341:1.16981e-06
223343:7.20442e-07
223345:1.45292e-06
223347:7.72436e-07
223349:1.14772e-06
223351:4.22737e-07
223353:9.12655e-07
223355:3.59307e-07
223357:1.12382e-06
223359:4.18574e-07
223361:1.10885e-06
223363:4.20199e-07
223365:1.11351e-06
223367:4.89132e-07
223369:9.65029e-07
223371:4.04119e-07
223373:9.79402e-07
223375:3.95253e-07
223377:8.86612e-07
223379:4.07085e-07
223381:-4.8729e-08
223383:1.48138e-07
223385:-3.4621e-07
223387:3.16079e-07
223389:1.00205e-06
223391:4.2268e-07
223393:6.66996e-07
223395:2.08768e-07
223397:-5.12809e-08
223399:4.08348e-07
223401:-5.12376e-07
223403:3.20583e-07
223405:1.95867e-06
223407:3.87634e-07
223409:-1.97914e-06
223411:3.04929e-07
223505:0.000155953
223507:0.000153141
223509:2.0928e-06
223511:8.34205e-07
223513:7.06983e-05
223515:4.88237e-05
223517:0.00100757
223519:0.000736775
223521:0.000313056
223523:0.000262282
223525:1.31316e-06
223527:9.84944e-08
223529:2.94338e-07
223531:-1.23679e-07
223533:3.69894e-06
223537:2.7357e-06
223539:3.56218e-07
223541:1.43911e-06
223543:9.43449e-07
223545:-3.44255e-06
223547:1.99396e-07
223549:-5.6146e-07
223551:5.21466e-07
223553:-1.01004e-06
223555:3.25062e-07
223557:3.03927e-09
223559:5.93811e-07
223561:-4.08059e-07
223563:3.83342e-07
223565:-2.79206e-06
223567:-5.6912e-08
223569:2.79932e-07
223571:2.1073e-07
223573:7.16625e-08
223575:5.87676e-08
223577:-1.03344e-07
223579:2.68114e-07
223581:1.14843e-06
223583:-1.32284e-08
223585:-1.01194e-06
223587:7.52505e-08
223589:-7.17851e-07
223591:1.3588e-07
223593:7.45646e-07
223595:1.74406e-07
223597:-2.68363e-06
223599:-2.16974e-07
223601:1.135e-07
223603:3.26508e-07
223605:-6.10957e-07
223607:-8.62034e-08
223609:-2.14186e-06
223611:-1.46332e-07
223613:0.00120456
223615:7.88497e-05
223617:4.63044e-05
223619:-7.92006e-05
223621:0.00286626
223625:0.00122941
223627:0.000143875
223629:0.00016433
223631:0.000396164
223633:-8.75798e-05
223635:3.80337e-06
223637:-3.07601e-05
223639:0.000199041
223641:-1.04545e-05
223643:0.000115512
223645:-5.81557e-05
223647:0.00031109
223649:-3.62154e-07
223651:0.000129392
223653:-7.92391e-05
223655:6.5366e-06
223657:0.00010762
223659:9.23808e-05
223661:0.000377015
223663:3.73164e-05
223665:6.15679e-05
223667:0.000108741
223669:-5.99512e-05
223671:-2.24166e-05
223673:5.65417e-05
223675:8.031e-06
223677:-1.1678e-05
223679:7.04293e-05
223681:0.000123234
223683:4.93844e-05
223685:1.05229e-06
223687:-7.33378e-05
223689:-3.68396e-05
223691:2.43476e-05
223693:2.17761e-06
223695:-3.62953e-05
223697:0.000133217
223699:3.38399e-05
223701:8.80296e-06
223703:1.23841e-05
223705:0.000161189
223707:8.65349e-05
223709:0.000219417
223711:0.000179479
223713:0.000118735
223715:0.000511054
223717:2.1297e-06
223719:8.71869e-07
223721:2.43485e-05
223723:7.02218e-05
223725:2.15906e-06
223727:8.45368e-07
223729:8.26071e-05
223731:9.5693e-05
223733:2.09713e-06
223735:8.37406e-07
223737:2.22483e-06
223739:8.76827e-07
223741:5.75584e-07
223743:3.70451e-07
223745:1.11095e-05
223747:0.000137131
223749:7.78062e-05
223751:0.000182961
223753:1.34422e-07
223755:4.1012e-08
223757:-0.00629507
223759:0.00121672
223765:0.00239356
223767:0.00150212
223777:0.0125726
223785:0.000377287
223787:0.000175851
223961:0.0172892
223963:0.00252414
224093:-0.0216391
224137:-0.0330187
224139:0.00269627
224313:0.00929677
224315:0.000469406
224329:-0.00422974
224331:0.00230256
224373:-0.0329049
224375:-0.00222017
224441:-0.0207235
224465:0.0129845
224467:-0.000409515
224549:-0.0222746
224605:-0.00719306
224607:0.0108046
224701:-0.00273914
224703:0.000335388
224717:-0.00444674
224719:-0.000361128
224893:-0.0109301
224895:0.00138147
224957:-0.00171386
224959:0.00208776
225101:0.0316822
225103:0.00228323
225237:-0.0133798
225325:-0.000633165
225333:-0.0126564
225349:-0.00221038
225351:0.00150749
225569:0.0357008
225689:0.00390319
225729:0.00145433
225741:-0.0254251
225749:0.0212823
225777:0.0241896
225785:0.00529352
225787:0.00279801
225833:-0.0245161
225835:-0.000975698
225873:-0.0111446
225977:-0.0257861
225989:-0.0124796
225997:0.0292714
226205:-0.0221547
226207:0.00288534
226437:-0.017322
226533:-0.0373571
226535:-0.00189533
226581:0.0256968
226669:-0.00268344
226671:0.00142629
226673:0.0314142
226675:0.000165804
226785:-0.0213176
226787:-0.00336677
226813:-0.00461477
226815:-0.000418367
226821:-0.0204496
226823:-0.00102488
226841:-0.0147535
226849:-0.0233442
226901:-0.0255419
226903:-0.00260455
226909:-0.0150359
226993:0.00761979
226995:-0.000395188
227361:0.0139803
227389:0.0123618
227391:0.000813299
227517:-0.0323041
227519:-0.00286305
227641:0.0262199
227761:-0.0115737
228021:-0.0149924
228045:-0.024312
228061:-0.0309649
228063:-0.00206414
228089:0.0273655
228109:0.0331678
228111:0.0102387
228225:-0.0242316
228227:-0.00133334
228329:-0.00722596
228331:0.000914305
228741:-0.00696331
228743:0.00187949
228861:0.020416
228863:0.00809289
228945:-0.0115809
228961:-0.0303484
228997:-0.0297336
229061:-0.000873192
229341:-0.0269324
229457:-0.0144006
229485:-0.00274355
229487:0.00113016
229589:0.0173703
229613:-0.0462123
229621:-0.0253831
229661:0.010623
229663:0.00209529
229737:0.0274165
230125:0.0430894
230133:-0.0227145
230177:0.00614268
230179:0.0017745
230233:-0.0141403
230237:0.0296959
230253:-0.0138456
230389:0.0276179
230489:0.00110852
230529:0.0212823
230717:-0.0358187
230719:-0.00254575
230781:0.00711205
230783:0.00199499
230821:-0.0227193
230969:-0.0265907
231097:0.0178515
231099:-0.000497857
231125:-0.0330594
231127:0.000976319
231221:-0.0263713
231289:-0.0245303
231445:0.0328142
231447:0.00308378
231493:0.0277289
231495:0.00100906
231629:-0.0234238
232113:-0.0251474
232115:0.00339722
232329:-0.0119017
232331:0.000724017
232525:-0.0269596
232673:0.00756333
232689:-0.0247161
232697:0.000877254
233005:-0.0391355
233153:0.0131578
233155:0.00103783
233161:0.0353612
233177:0.0201114
233179:0.00190005
233673:-0.0305754
233675:-0.00146774
234177:-0.0142446
234179:0.00105477
234229:-0.0298924
234361:0.0290628
234449:-0.0166013
234451:0.00214062
234573:-0.0212444
234757:-0.00832117
234759:-0.00081562
234825:0.0421024
234827:0.00147774
234933:-0.0169443
235013:0.0264653
235015:0.000926116
235597:-0.0164024
235637:-0.0283923
235685:0.0274526
235687:0.0029518
235733:0.00231576
235873:-0.00954446
235875:0.00865759
235957:0.00920358
235959:0.004014
236145:-0.0271042
236185:-0.0132623
236413:-0.0338488
236433:-0.0201602
236529:0.00388355
236553:-0.0305027
236601:0.00113495
236605:-0.0076517
236607:-0.00134847
236617:-0.00954523
236729:-0.0271195
236769:-0.042363
236969:0.00953477
237417:-0.0321536
237419:-0.00281309
237425:-0.00135944
237427:0.000178479
237545:-0.0177738
237697:-0.0227555
237709:-0.0774214
237711:-0.00363844
237737:0.00703596
237753:0.0172293
237913:-0.0173861
237989:-0.0175706
237991:0.00729296
238109:-0.0191816
238111:-0.000497857
238113:-0.0317171
238309:-0.00952186
238413:-0.00283178
238733:0.00338755
238869:0.00244456
238981:-0.0142436
239061:-0.0462429
239077:-0.0405619
239079:-0.00260455
239101:0.0230531
239121:-0.0190592
239209:-0.0240829
239301:0.0119865
239303:-0.00140868
239321:-0.0209569
239365:0.0064603
239413:0.0266939
239517:0.0250792
239541:-0.0315441
239543:-0.00174639
239689:-0.0048909
239793:-0.0027847
239795:0.00445915
239981:0.0211853
239983:0.00838422
240065:-0.000566991
240169:-0.0143262
240171:-0.00140442
240277:0.0199758
240279:0.000722818
240349:0.00652313
240417:-0.0177981
240419:0.00175783
240509:-0.0172601
240511:-0.000659214
240513:0.000848929
240853:0.00135837
240855:0.00105241
240897:0.0045141
240899:-0.000593357
240961:0.00110852
241169:-0.0254451
241171:0.0164469
241421:-0.0323521
241423:-0.00260455
241721:-0.00223533
241797:-0.0241293
241799:0.00150332
241813:-0.0366462
241877:-0.0189369
242189:-0.0133798
242229:-0.00301798
242231:0.00275574
242313:-0.0111133
242315:0.00298833
242333:0.00970554
242469:0.0204922
242497:0.0243691
242517:0.0143899
242519:0.00384671
242669:0.0305135
242757:0.00546875
242865:0.0261808
243013:2.38977e-06
243113:0.0274541
243115:0.00158798
243337:0.00649055
243339:0.0027624
243353:-0.0624073
243355:-0.00168404
243361:0.0312581
243469:-0.00385935
243471:0.00263455
243477:-0.00630933
243733:0.0253913
243877:0.020552
243929:-0.0215647
244021:0.0258
244281:0.0195857
244309:-0.0266346
244405:-0.0187904
244429:-0.0199373
244445:-0.0229988
244729:-0.0301167
244741:0.0317645
244805:-0.00101597
244807:0.00147774
244861:0.0116623
244863:0.000722818
244877:5.56698e-07
244879:-0.00323934
244957:0.010258
244959:0.001206
244993:0.0189424
244995:0.00451278
245173:0.0153913
245293:0.0234336
245295:0.000729412
245593:0.00603139
245637:-0.00757036
245801:0.0203831
245809:-0.0242806
245811:0.00109187
245997:0.0386845
246293:-0.0282175
246673:-0.0218554
246769:0.00190323
246771:-0.000738331
246789:0.0157831
246849:-0.0147161
246851:0.00150524
247001:0.000684264
247003:0.000722818
247013:0.034971
247065:-0.00896058
247067:0.00163441
247205:-0.0260681
247493:-0.000347272
247495:0.0019973
247529:-0.0148927
247531:-0.000738331
247585:-0.0211445
247661:-0.0270958
247665:-0.0128274
247861:-0.00742199
247863:0.000718866
247877:0.0396004
247921:-0.0561564
247923:-0.000527905
247985:-0.0152769
248109:-0.00183971
248111:-0.00084227
248197:0.0199919
248199:0.00809289
248297:-0.0412913
248313:0.0160429
248315:0.00746845
248425:-0.0164152
248433:-0.0597102
248435:-0.00168404
248461:-0.0146991
248463:0.00478579
248685:0.0113922
248753:-0.0134586
248805:-0.00222755
249049:-0.0179024
249093:-0.0371854
249095:-0.000933183
249121:0.03437
249149:-0.00253142
249151:0.000221868
249201:-0.0204625
249409:0.0383362
249657:-0.0123476
249841:0.00068784
249843:-0.000231741
249885:-0.0164357
249961:0.0131815
250309:-0.0356791
250329:-0.0155495
250693:0.00511592
250695:0.00137858
250729:0.0232904
250809:-0.017442
250945:0.00246221
250947:0.000914305
250969:-0.00616116
251045:-0.0052554
251047:0.00475151
251049:-0.0150781
251065:0.0269317
251289:0.0440617
251291:-0.00110791
251305:-0.0277578
251325:-0.00680993
251327:-0.000739327
251421:-0.027402
251423:-0.00182931
251573:0.00385945
251575:0.001298
251753:0.0174504
251755:0.000914305
251825:-0.0216987
251857:-0.0394476
251973:-0.0272988
251975:-0.00560803
251977:-0.0203994
252113:0.00566916
252115:0.00178493
252281:0.0282508
252661:0.00932426
252813:-0.0270879
252849:0.0289767
252901:-0.0625037
252903:-0.00260455
253061:-0.00972766
253077:0.0169804
253253:-0.0196333
253255:0.00299846
253317:-0.0242515
253345:-0.0147425
253393:-0.00536101
253395:0.000863177
253413:-0.0460952
253437:0.0190085
253509:-0.00366372
253511:0.00218497
253517:-0.0257587
253519:-0.00104043
253813:-0.015605
253941:0.00292185
253943:0.0015037
254081:-0.0157588
254333:0.0196365
254335:0.00259462
254401:0.013147
254403:-0.000267797
254557:0.00120773
254559:0.00151206
254561:0.0473573
254563:0.00205062
254669:0.0140158
254965:-0.00468133
255045:0.0430755
255047:0.000136261
255077:0.00754316
255081:-0.0278779
255253:-0.0269596
255401:-0.0184946
255481:-0.060559
255483:-0.00133334
255521:-0.00407418
255601:-0.0229571
255637:0.00826823
255639:0.00183733
255745:-0.00955688
255747:-0.000460927
255873:-0.00644058
255875:0.00252527
256125:-0.0244447
256161:-0.0148305
256329:-0.0133798
256605:0.00960672
256733:0.0313257
256781:0.0128586
256783:0.0104105
257309:-0.00497783
257311:0.00200238
257317:0.000501506
257333:-0.0196322
257335:-0.000973734
257561:-0.0100935
257563:0.00138147
257593:0.00139006
257657:-0.0535767
257659:-0.00084227
257793:0.0192867
257985:0.0107965
257987:-0.00181092
258029:0.0121258
258041:-0.0159698
258273:-0.0437096
258409:-0.0150056
258597:0.0309721
258599:0.0015722
258641:-0.0210354
258643:0.00166877
258785:-0.0217973
258941:0.0201625
258943:0.00808658
258969:0.00892499
259041:-0.00322835
259043:-0.00161347
259101:-0.0326206
259103:-0.000218012
259245:-0.00710601
259265:0.0304532
259269:-0.0109592
259271:0.00269314
259413:0.0192287
259905:-0.039251
260205:-0.0160682
260241:-0.017205
260289:-0.0222206
260337:0.0103184
260405:0.0189183
260407:0.00154999
260437:-0.0117285
260439:0.00137858
260505:0.0364068
260845:0.02867
260853:-0.0208362
260973:-0.0691553
260975:-0.00222017
260985:-0.00514764
261021:-0.0180972
261277:-0.0128478
261397:0.0229751
261401:-0.0274015
261403:0.001743
261609:0.00584014
261611:0.00247546
261637:0.0281821
261805:0.000187133
261973:-0.0352606
262005:-0.0132544
262007:-0.00126047
